{"learner":{"attributes":{"scikit_learn":"{\"_estimator_type\": \"classifier\"}"},"feature_names":["InscClaimAmtReimbursed","DeductibleAmtPaid","Gender","Race","RenalDiseaseIndicator","State","County","NoOfMonths_PartACov","NoOfMonths_PartBCov","ChronicCond_Alzheimer","ChronicCond_Heartfailure","ChronicCond_KidneyDisease","ChronicCond_Cancer","ChronicCond_ObstrPulmonary","ChronicCond_Depression","ChronicCond_Diabetes","ChronicCond_IschemicHeart","ChronicCond_Osteoporasis","ChronicCond_rheumatoidarthritis","ChronicCond_stroke","IPAnnualReimbursementAmt","IPAnnualDeductibleAmt","OPAnnualReimbursementAmt","OPAnnualDeductibleAmt","isDead","Age","AdmitPeriod","ClaimPeriod","Physician_Same","DiseasesCount","PhysiciansCount","TotalClaimCodes","TotalClaimProcedures"],"feature_types":["float","float","int","int","int","int","int","int","int","int","int","int","int","int","int","int","int","int","int","int","float","float","float","float","int","float","float","float","int","float","float","float","float"],"gradient_booster":{"model":{"gbtree_model_param":{"num_parallel_tree":"1","num_trees":"100"},"iteration_indptr":[0,1,2,3,4,5,6,7,8,9,10,11,12,13,14,15,16,17,18,19,20,21,22,23,24,25,26,27,28,29,30,31,32,33,34,35,36,37,38,39,40,41,42,43,44,45,46,47,48,49,50,51,52,53,54,55,56,57,58,59,60,61,62,63,64,65,66,67,68,69,70,71,72,73,74,75,76,77,78,79,80,81,82,83,84,85,86,87,88,89,90,91,92,93,94,95,96,97,98,99,100],"tree_info":[0,0,0,0,0,0,0,0,0,0,0,0,0,0,0,0,0,0,0,0,0,0,0,0,0,0,0,0,0,0,0,0,0,0,0,0,0,0,0,0,0,0,0,0,0,0,0,0,0,0,0,0,0,0,0,0,0,0,0,0,0,0,0,0,0,0,0,0,0,0,0,0,0,0,0,0,0,0,0,0,0,0,0,0,0,0,0,0,0,0,0,0,0,0,0,0,0,0,0,0],"trees":[{"base_weights":[-9.142121E-3,-7.32042E-2,8.260367E-1,2.8429875E-1,-1.8480904E-1,1.0062842E0,6.3856626E-1,-6.032778E-1,6.465917E-1,-5.4535204E-1,-6.522855E-2,1.1318951E0,6.1969894E-1,5.380614E-1,7.5293E-1,-8.8355756E-1,-4.6722266E-1,-2.6374882E-1,8.199132E-1,-3.78876E-1,-8.4015995E-1,2.2335884E-1,-2.5770348E-1,1.0921024E0,1.7805861E0,1.5337443E-1,7.005427E-1,5.5985063E-1,-9.679125E-1,9.9600786E-1,6.049107E-1,-9.7916657E-1,-6.631931E-1,-2.0805569E-1,-6.0650724E-1,-8.0947524E-1,-3.31266E-2,1.0847765E0,4.78489E-1,-4.231785E-1,1.0059175E0,4.8399585E-1,-8.672976E-1,-1.5587E-2,5.457476E-1,-7.021436E-1,-8.605956E-2,1.8442757E-1,1.1150271E0,7.333643E-1,1.9338896E0,-6.5711066E-3,1.2406284E0,7.9575545E-1,1.9667841E-1,7.035546E-1,4.495162E-1,-1.2086389E0,8.9677125E-2,1.2241389E0,6.882183E-1,4.2949533E-1,8.5265213E-1,-2.9484898E-1,3.4001172E-1,-1.744973E-1,-3.8139096E-1,-1.3847195E-1,1.8862593E-1,-2.371909E-1,-1.5624215E-1,-2.8015885E-1,-1.237741E-1,3.118284E-2,-2.9086816E-1,3.9947224E-1,1.3638705E-1,-2.463818E-3,2.7382168E-1,-3.3193287E-2,-1.9594318E-1,3.5272247E-1,1.5662836E-1,-2.4834813E-1,2.846416E-1,-2.8411263E-1,-1.6636087E-1,8.969277E-2,-1.4102201E-1,2.5307266E-2,2.2908735E-1,-2.4225163E-1,-1.1622462E-1,1.4871411E-2,-2.7004558E-1,-4.4196837E-2,5.963829E-1,3.433333E-1,1.4235286E-1,3.3563864E-1,9.993684E-2,5.4103905E-1,7.141956E-1,3.3078653E-1,-5.2335538E-2,5.122429E-1,1.4770542E-1,1.6482249E-1,2.9753217E-1,-1.7464162E-1,1.1840525E-1,2.535241E-1,1.1430289E-1,-8.512214E-3,1.5649348E-1,-4.7343057E-2,-4.041418E-1,-2.5302258E-1,2.653208E-1,4.1816553E-1,2.1733461E-1,7.825545E-2,2.9718944E-1,-1.1687304E-2,1.9181123E-1,3.0507916E-1,7.403757E-2],"categories":[],"categories_nodes":[],"categories_segments":[],"categories_sizes":[],"default_left":[0,0,0,0,0,0,0,0,0,0,0,0,0,0,0,0,0,0,0,0,0,0,0,0,0,0,0,0,0,0,0,0,0,0,0,0,0,0,0,0,0,0,0,0,0,0,0,0,0,0,0,0,0,0,0,0,0,0,0,0,0,0,0,0,0,0,0,0,0,0,0,0,0,0,0,0,0,0,0,0,0,0,0,0,0,0,0,0,0,0,0,0,0,0,0,0,0,0,0,0,0,0,0,0,0,0,0,0,0,0,0,0,0,0,0,0,0,0,0,0,0,0,0,0,0,0,0],"id":0,"left_children":[1,3,5,7,9,11,13,15,17,19,21,23,25,27,29,31,33,35,37,39,41,43,45,47,49,51,53,55,57,59,61,63,65,67,69,71,73,75,77,79,81,83,85,87,89,91,93,95,97,99,101,103,105,107,109,111,113,115,117,119,121,123,125,-1,-1,-1,-1,-1,-1,-1,-1,-1,-1,-1,-1,-1,-1,-1,-1,-1,-1,-1,-1,-1,-1,-1,-1,-1,-1,-1,-1,-1,-1,-1,-1,-1,-1,-1,-1,-1,-1,-1,-1,-1,-1,-1,-1,-1,-1,-1,-1,-1,-1,-1,-1,-1,-1,-1,-1,-1,-1,-1,-1,-1,-1,-1,-1],"loss_changes":[5.650751E3,3.913785E3,2.5360205E2,7.5047207E3,3.2229353E3,1.854834E2,4.2018066E1,2.5756445E2,2.6151235E3,9.134458E2,3.118254E3,7.27251E1,3.5424347E1,6.511865E1,6.1423645E1,4.5905518E1,1.6435217E2,3.3367508E2,1.2585039E3,7.305448E2,2.4184619E2,1.7302809E3,2.5690073E3,5.656006E1,2.516809E1,2.4447287E1,3.8365326E1,3.0451721E1,7.3473644E0,4.4861267E1,4.630713E1,1.3023926E1,3.2565674E1,3.385126E2,4.6346313E1,3.8497314E1,2.3946608E2,1.2185986E3,1.2858601E3,8.2880615E2,2.9723755E1,8.344767E1,1.6368457E2,1.8445367E3,9.610906E2,3.10812E2,2.6826697E3,4.121907E1,4.9590332E1,3.1380644E0,4.08844E0,2.3190748E1,5.4570427E0,3.2050964E1,2.0114553E1,3.8070374E1,3.7948074E1,3.168438E0,5.345712E0,3.0589172E1,3.584636E1,6.2042816E1,4.3960022E1,0E0,0E0,0E0,0E0,0E0,0E0,0E0,0E0,0E0,0E0,0E0,0E0,0E0,0E0,0E0,0E0,0E0,0E0,0E0,0E0,0E0,0E0,0E0,0E0,0E0,0E0,0E0,0E0,0E0,0E0,0E0,0E0,0E0,0E0,0E0,0E0,0E0,0E0,0E0,0E0,0E0,0E0,0E0,0E0,0E0,0E0,0E0,0E0,0E0,0E0,0E0,0E0,0E0,0E0,0E0,0E0,0E0,0E0,0E0,0E0,0E0,0E0,0E0,0E0],"parents":[2147483647,0,0,1,1,2,2,3,3,4,4,5,5,6,6,7,7,8,8,9,9,10,10,11,11,12,12,13,13,14,14,15,15,16,16,17,17,18,18,19,19,20,20,21,21,22,22,23,23,24,24,25,25,26,26,27,27,28,28,29,29,30,30,31,31,32,32,33,33,34,34,35,35,36,36,37,37,38,38,39,39,40,40,41,41,42,42,43,43,44,44,45,45,46,46,47,47,48,48,49,49,50,50,51,51,52,52,53,53,54,54,55,55,56,56,57,57,58,58,59,59,60,60,61,61,62,62],"right_children":[2,4,6,8,10,12,14,16,18,20,22,24,26,28,30,32,34,36,38,40,42,44,46,48,50,52,54,56,58,60,62,64,66,68,70,72,74,76,78,80,82,84,86,88,90,92,94,96,98,100,102,104,106,108,110,112,114,116,118,120,122,124,126,-1,-1,-1,-1,-1,-1,-1,-1,-1,-1,-1,-1,-1,-1,-1,-1,-1,-1,-1,-1,-1,-1,-1,-1,-1,-1,-1,-1,-1,-1,-1,-1,-1,-1,-1,-1,-1,-1,-1,-1,-1,-1,-1,-1,-1,-1,-1,-1,-1,-1,-1,-1,-1,-1,-1,-1,-1,-1,-1,-1,-1,-1,-1,-1],"split_conditions":[2.7890384E-1,1.1E1,3.6E2,1.41E2,2.2E1,3.7E1,2.9E1,5E0,5E0,1.7E1,3.4E1,3.6E1,4E0,2.8E1,3.7E1,8E1,7E0,3.5E2,6E0,9.89E2,1E1,3.1E1,3.9E1,3E0,9E1,3.2E2,5.1E1,1.1E1,7.8E2,6.1E2,6.6E2,2.8731384E0,4E0,6E0,8E0,1.3993027E0,6.4E2,4.8E2,4.7E2,3E2,1.3993027E0,2E1,1.3993027E0,2.5E1,2.6E2,1.3993027E0,5.1E1,2.8E2,3.3784602E0,6.437355E-1,2.9E2,2E1,4.1E1,4.4E1,6E1,5.3E2,1.2E1,1E0,2.3558586E0,3.5E1,3.4E1,4.1E1,9.2E2,-2.9484898E-1,3.4001172E-1,-1.744973E-1,-3.8139096E-1,-1.3847195E-1,1.8862593E-1,-2.371909E-1,-1.5624215E-1,-2.8015885E-1,-1.237741E-1,3.118284E-2,-2.9086816E-1,3.9947224E-1,1.3638705E-1,-2.463818E-3,2.7382168E-1,-3.3193287E-2,-1.9594318E-1,3.5272247E-1,1.5662836E-1,-2.4834813E-1,2.846416E-1,-2.8411263E-1,-1.6636087E-1,8.969277E-2,-1.4102201E-1,2.5307266E-2,2.2908735E-1,-2.4225163E-1,-1.1622462E-1,1.4871411E-2,-2.7004558E-1,-4.4196837E-2,5.963829E-1,3.433333E-1,1.4235286E-1,3.3563864E-1,9.993684E-2,5.4103905E-1,7.141956E-1,3.3078653E-1,-5.2335538E-2,5.122429E-1,1.4770542E-1,1.6482249E-1,2.9753217E-1,-1.7464162E-1,1.1840525E-1,2.535241E-1,1.1430289E-1,-8.512214E-3,1.5649348E-1,-4.7343057E-2,-4.041418E-1,-2.5302258E-1,2.653208E-1,4.1816553E-1,2.1733461E-1,7.825545E-2,2.9718944E-1,-1.1687304E-2,1.9181123E-1,3.0507916E-1,7.403757E-2],"split_indices":[26,5,6,6,5,5,5,5,5,5,5,5,28,5,5,6,5,6,5,6,6,5,5,5,6,6,5,5,6,6,6,1,5,5,5,30,6,6,6,6,30,5,30,5,6,30,5,6,30,29,6,6,5,5,6,6,5,16,0,5,5,5,6,0,0,0,0,0,0,0,0,0,0,0,0,0,0,0,0,0,0,0,0,0,0,0,0,0,0,0,0,0,0,0,0,0,0,0,0,0,0,0,0,0,0,0,0,0,0,0,0,0,0,0,0,0,0,0,0,0,0,0,0,0,0,0,0],"split_type":[0,0,0,0,0,0,0,0,0,0,0,0,0,0,0,0,0,0,0,0,0,0,0,0,0,0,0,0,0,0,0,0,0,0,0,0,0,0,0,0,0,0,0,0,0,0,0,0,0,0,0,0,0,0,0,0,0,0,0,0,0,0,0,0,0,0,0,0,0,0,0,0,0,0,0,0,0,0,0,0,0,0,0,0,0,0,0,0,0,0,0,0,0,0,0,0,0,0,0,0,0,0,0,0,0,0,0,0,0,0,0,0,0,0,0,0,0,0,0,0,0,0,0,0,0,0,0],"sum_hessian":[1.0561288E5,9.808985E4,7.523033E3,2.3336066E4,7.475379E4,3.8331758E3,3.6898574E3,6.764108E3,1.6571957E4,1.8617438E4,5.6136348E4,2.8916733E3,9.415025E2,1.9669622E3,1.7228951E3,2.208664E3,4.555444E3,2.6504443E3,1.3921514E4,1.189992E4,6.7175176E3,2.246031E4,3.367604E4,2.7270698E3,1.646033E2,1.3953441E2,8.019681E2,1.9395283E3,2.7433884E1,6.4989923E2,1.072996E3,1.537953E3,6.707112E2,1.5932937E3,2.96215E3,7.8659564E2,1.8638486E3,7.838523E3,6.0829907E3,1.1531691E4,3.6822894E2,1.3456793E2,6.5829497E3,1.2900074E4,9.560235E3,9.381442E3,2.4294596E4,6.7402214E1,2.6596677E3,2.1757908E1,1.428454E2,1.2250648E2,1.7027927E1,6.7402216E2,1.2794595E2,8.4004443E2,1.0994839E3,2.2230906E1,5.202978E0,3.7153992E2,2.783593E2,6.297968E2,4.4319913E2,1.5358245E3,2.128491E0,5.9313947E2,7.757167E1,1.2231729E3,3.7012094E2,9.381915E2,2.0239584E3,5.9786945E2,1.887262E2,1.6266401E3,2.372085E2,5.6317505E3,2.2067722E3,2.868733E3,3.2142578E3,4.888907E3,6.6427837E3,2.7150085E2,9.672809E1,3.500185E1,9.956608E1,5.243892E3,1.3390574E3,7.6237817E3,5.2762925E3,3.066919E3,6.4933164E3,7.027331E3,2.354111E3,2.0825865E4,3.4687307E3,5.7705753E1,9.696459E0,2.5421277E3,1.1754E2,1.01694565E1,1.158845E1,1.14465515E2,2.8379879E1,1.5372435E1,1.0713405E2,9.696459E0,7.331469E0,3.0035373E2,3.7366843E2,2.5541891E1,1.0240407E2,5.827335E2,2.573109E2,1.4426439E2,9.552194E2,2.837988E0,1.9392918E1,2.36499E0,2.837988E0,2.7599432E2,9.554559E1,1.1612101E2,1.6223831E2,1.9511168E2,4.3468515E2,3.4812653E2,9.507259E1],"tree_param":{"num_deleted":"0","num_feature":"33","num_nodes":"127","size_leaf_vector":"1"}},{"base_weights":[-1.0743761E-2,-1.2431681E-1,2.8579146E-1,-1.6564523E-1,5.82998E-1,-3.6058072E-2,3.5701331E-1,-4.0686086E-1,-6.8318866E-2,6.730729E-1,3.1535593E-1,5.1075613E-1,-1.09212585E-1,6.792572E-1,2.8275797E-1,-7.514132E-2,-5.045196E-1,-3.6824998E-1,-2.084036E-3,7.747936E-1,4.567311E-1,-1.0584968E0,3.3342794E-1,-6.8533254E-1,7.526217E-1,-1.775479E-1,4.4584998E-1,7.215104E-1,-3.3124876E-1,5.730534E-1,1.9784169E-1,-6.753051E-1,1.9260423E-1,-4.713868E-1,-9.0838397E-1,1.4466399E-1,-4.328128E-1,3.605822E-1,-1.0547445E-1,7.0753753E-1,1.0839581E0,3.9643347E-1,8.015538E-1,-4.0707078E-2,-1.345728E0,1.0797645E0,3.002469E-1,-1.1340826E0,-5.6990606E-1,9.705805E-1,-7.985462E-3,-2.566397E-1,5.662037E-2,8.6575437E-1,2.8212905E-1,6.011035E-1,1.1354508E0,-5.314707E-1,4.919795E-1,6.74584E-1,1.6972879E-1,1.3975996E-1,6.768528E-1,-2.4658512E-1,-1.5949401E-1,2.4134831E-1,2.3622496E-2,-2.0860499E-1,-1.1524318E-1,-3.2240325E-1,-2.2079697E-1,-8.299394E-2,2.5490972E-1,-2.2555825E-1,-1.1647648E-1,-7.37579E-2,1.4107957E-1,-1.161318E-1,-5.2569825E-3,2.1826355E-1,-3.554929E-1,2.0367454E-1,3.5140818E-1,1.08143486E-1,3.213381E-1,1.7996038E-1,3.630911E-1,-1.6542158E-1,1.309519E-1,-4.4465813E-1,-1.8425378E-1,3.775312E-1,1.7588004E-1,2.7848534E-2,1.1556066E-1,-3.7430304E-1,-2.5651025E-2,3.1033576E-1,-1.8796705E-1,1.1726657E-1,7.356604E-1,4.8429143E-2,-2.3764582E-1,-6.0450915E-2,-2.050552E-1,-2.3931311E-2,2.1733274E-1,1.6501752E-1,4.5579648E-1,-2.2129022E-2,1.13721125E-1,8.9284696E-2,2.693929E-1,3.999243E-1,2.3075238E-1,3.5636006E-3,-3.1789503E-1,3.6246243E-1,7.1312557E-3,1.1141783E-1,3.0933714E-1,-2.8780255E-1,1.14302665E-1,5.7713054E-2,-8.712645E-2,3.600347E-1,-1.0513025E-1],"categories":[],"categories_nodes":[],"categories_segments":[],"categories_sizes":[],"default_left":[0,0,0,0,0,0,0,0,0,0,0,0,0,0,0,0,0,0,0,0,0,0,0,0,0,0,0,0,0,0,0,0,0,0,0,0,0,0,0,0,0,0,0,0,0,0,0,0,0,0,0,0,0,0,0,0,0,0,0,0,0,0,0,0,0,0,0,0,0,0,0,0,0,0,0,0,0,0,0,0,0,0,0,0,0,0,0,0,0,0,0,0,0,0,0,0,0,0,0,0,0,0,0,0,0,0,0,0,0,0,0,0,0,0,0,0,0,0,0,0,0,0,0,0,0,0,0],"id":1,"left_children":[1,3,5,7,9,11,13,15,17,19,21,23,25,27,29,31,33,35,37,39,41,43,45,47,49,51,53,55,57,59,61,63,65,67,69,71,73,75,77,79,81,83,85,87,89,91,93,95,97,99,101,103,105,107,109,111,113,115,117,119,121,123,125,-1,-1,-1,-1,-1,-1,-1,-1,-1,-1,-1,-1,-1,-1,-1,-1,-1,-1,-1,-1,-1,-1,-1,-1,-1,-1,-1,-1,-1,-1,-1,-1,-1,-1,-1,-1,-1,-1,-1,-1,-1,-1,-1,-1,-1,-1,-1,-1,-1,-1,-1,-1,-1,-1,-1,-1,-1,-1,-1,-1,-1,-1,-1,-1],"loss_changes":[3.5252654E3,2.2125754E3,6.644951E2,1.6787611E3,1.0052075E2,2.1019885E2,5.677612E2,6.659341E2,1.01221094E3,6.842517E1,2.6522781E1,1.7989258E2,1.7585876E2,1.9000366E2,4.7545435E2,7.5165955E2,2.1208911E2,3.0527234E2,1.5650038E3,4.340674E1,2.0515503E1,4.015938E0,2.5458084E1,4.782959E0,8.5589905E1,7.64496E1,3.469867E1,2.1195874E2,2.9776567E1,1.7865564E2,4.1521765E2,2.9962585E1,2.2531299E2,2.8656323E2,3.369867E1,3.06536E2,1.1608716E2,6.159984E2,8.0448035E2,6.7039185E1,1.2575928E1,2.0350937E1,1.1487793E1,1.2389228E0,1.7070198E-1,3.1357994E0,1.7553436E1,2.327343E0,8.408388E0,3.436784E2,1.553515E1,7.247714E1,9.504142E1,2.8483963E1,1.2695925E1,2.9769617E2,6.848328E1,4.1486347E1,1.1892999E1,3.7659326E2,2.1012096E2,3.0142834E2,8.6802405E2,0E0,0E0,0E0,0E0,0E0,0E0,0E0,0E0,0E0,0E0,0E0,0E0,0E0,0E0,0E0,0E0,0E0,0E0,0E0,0E0,0E0,0E0,0E0,0E0,0E0,0E0,0E0,0E0,0E0,0E0,0E0,0E0,0E0,0E0,0E0,0E0,0E0,0E0,0E0,0E0,0E0,0E0,0E0,0E0,0E0,0E0,0E0,0E0,0E0,0E0,0E0,0E0,0E0,0E0,0E0,0E0,0E0,0E0,0E0,0E0,0E0,0E0,0E0,0E0],"parents":[2147483647,0,0,1,1,2,2,3,3,4,4,5,5,6,6,7,7,8,8,9,9,10,10,11,11,12,12,13,13,14,14,15,15,16,16,17,17,18,18,19,19,20,20,21,21,22,22,23,23,24,24,25,25,26,26,27,27,28,28,29,29,30,30,31,31,32,32,33,33,34,34,35,35,36,36,37,37,38,38,39,39,40,40,41,41,42,42,43,43,44,44,45,45,46,46,47,47,48,48,49,49,50,50,51,51,52,52,53,53,54,54,55,55,56,56,57,57,58,58,59,59,60,60,61,61,62,62],"right_children":[2,4,6,8,10,12,14,16,18,20,22,24,26,28,30,32,34,36,38,40,42,44,46,48,50,52,54,56,58,60,62,64,66,68,70,72,74,76,78,80,82,84,86,88,90,92,94,96,98,100,102,104,106,108,110,112,114,116,118,120,122,124,126,-1,-1,-1,-1,-1,-1,-1,-1,-1,-1,-1,-1,-1,-1,-1,-1,-1,-1,-1,-1,-1,-1,-1,-1,-1,-1,-1,-1,-1,-1,-1,-1,-1,-1,-1,-1,-1,-1,-1,-1,-1,-1,-1,-1,-1,-1,-1,-1,-1,-1,-1,-1,-1,-1,-1,-1,-1,-1,-1,-1,-1,-1,-1,-1],"split_conditions":[1.3993027E0,2.8731384E0,1.1E2,3E0,3.7E1,1E1,2.1E2,1.1E1,1.1E2,4.8E2,1E0,6E0,3.3737187E0,5.1E1,1.1E1,2E2,5E1,1E1,1.1E1,3.3E1,3.4E1,-6.184495E-1,2E1,-5.0703377E-1,3.3E1,8E1,8E0,3.9E1,-6.681468E-2,5.4E2,4.6E1,6E0,2.1E2,2.2E1,5.2E1,3.1E1,5E0,5E0,2.2E1,3.2E1,1E2,3.1405466E0,-1.3941713E-1,4.5E1,1E0,4.5E1,2.6E2,3.3784602E0,-6.2842935E-1,3.1E1,5.2E1,7E1,3.9E1,6E0,2.3519145E-1,1.6E2,4.7E1,1.41E2,-5.186511E-1,4.7E2,5.7E2,4.5E1,5.1E1,-2.4658512E-1,-1.5949401E-1,2.4134831E-1,2.3622496E-2,-2.0860499E-1,-1.1524318E-1,-3.2240325E-1,-2.2079697E-1,-8.299394E-2,2.5490972E-1,-2.2555825E-1,-1.1647648E-1,-7.37579E-2,1.4107957E-1,-1.161318E-1,-5.2569825E-3,2.1826355E-1,-3.554929E-1,2.0367454E-1,3.5140818E-1,1.08143486E-1,3.213381E-1,1.7996038E-1,3.630911E-1,-1.6542158E-1,1.309519E-1,-4.4465813E-1,-1.8425378E-1,3.775312E-1,1.7588004E-1,2.7848534E-2,1.1556066E-1,-3.7430304E-1,-2.5651025E-2,3.1033576E-1,-1.8796705E-1,1.1726657E-1,7.356604E-1,4.8429143E-2,-2.3764582E-1,-6.0450915E-2,-2.050552E-1,-2.3931311E-2,2.1733274E-1,1.6501752E-1,4.5579648E-1,-2.2129022E-2,1.13721125E-1,8.9284696E-2,2.693929E-1,3.999243E-1,2.3075238E-1,3.5636006E-3,-3.1789503E-1,3.6246243E-1,7.1312557E-3,1.1141783E-1,3.0933714E-1,-2.8780255E-1,1.14302665E-1,5.7713054E-2,-8.712645E-2,3.600347E-1,-1.0513025E-1],"split_indices":[30,1,6,28,5,6,6,5,6,6,28,5,32,5,5,6,5,6,5,5,5,23,6,22,5,6,5,5,1,6,5,5,6,5,5,5,5,5,5,5,6,21,23,5,12,5,6,30,23,5,5,6,5,5,20,6,5,6,23,6,6,5,5,0,0,0,0,0,0,0,0,0,0,0,0,0,0,0,0,0,0,0,0,0,0,0,0,0,0,0,0,0,0,0,0,0,0,0,0,0,0,0,0,0,0,0,0,0,0,0,0,0,0,0,0,0,0,0,0,0,0,0,0,0,0,0,0],"split_type":[0,0,0,0,0,0,0,0,0,0,0,0,0,0,0,0,0,0,0,0,0,0,0,0,0,0,0,0,0,0,0,0,0,0,0,0,0,0,0,0,0,0,0,0,0,0,0,0,0,0,0,0,0,0,0,0,0,0,0,0,0,0,0,0,0,0,0,0,0,0,0,0,0,0,0,0,0,0,0,0,0,0,0,0,0,0,0,0,0,0,0,0,0,0,0,0,0,0,0,0,0,0,0,0,0,0,0,0,0,0,0,0,0,0,0,0,0,0,0,0,0,0,0,0,0,0,0],"sum_hessian":[1.0467229E5,7.568536E4,2.8986928E4,7.150792E4,4.177443E3,5.252323E3,2.3734605E4,2.055667E4,5.095125E4,3.124409E3,1.0530342E3,6.190531E2,4.63327E3,4.4434297E3,1.9291176E4,4.675856E3,1.5880813E4,9.215617E3,4.1735633E4,2.1234246E3,1.00098444E3,1.2924558E1,1.0401096E3,1.0381704E2,5.152361E2,4.1259883E3,5.0728186E2,4.265364E3,1.7806563E2,4.3645933E3,1.4926583E4,1.4420078E3,3.2338481E3,1.4678745E4,1.202068E3,1.0301823E3,8.1854355E3,9.258117E3,3.2477516E4,1.7467275E3,3.7669696E2,8.5382874E2,1.4715565E2,3.0959451E0,9.828612E0,4.2930824E1,9.971788E2,1.9434662E1,8.438238E1,4.0026147E2,1.14974594E2,3.0841885E3,1.0417999E3,1.4110188E2,3.6617996E2,3.3061294E3,9.592344E2,1.4351497E2,3.455067E1,3.4863E3,8.78293E2,1.331356E4,1.6130226E3,7.1124915E2,7.3075867E2,5.0640344E2,2.7274446E3,4.1130566E3,1.0565688E4,6.091959E2,5.928721E2,6.4522205E2,3.8496017E2,1.0011343E3,7.1843013E3,1.4178002E3,7.8403174E3,7.728004E3,2.4749512E4,1.7290635E3,1.7664026E1,6.8414825E1,3.0828214E2,8.1208606E2,4.1742695E1,1.00188225E2,4.6967422E1,1.4204051E0,1.67554E0,7.418614E0,2.4099987E0,3.0381166E1,1.2549657E1,2.9035913E2,7.0681964E2,1.7363747E1,2.070915E0,2.2892854E0,8.2093094E1,2.8860648E2,1.1165499E2,9.520097E1,1.9773619E1,2.7326978E3,3.5149057E2,8.6584607E2,1.7595392E2,9.638578E1,4.4716106E1,7.844195E1,2.8773804E2,1.6358407E3,1.6702888E3,6.2134076E2,3.3789365E2,7.122341E1,7.229155E1,1.303313E1,2.1517542E1,1.8852119E3,1.6010883E3,1.378876E2,7.404054E2,1.1863099E4,1.450461E3,1.0685657E3,5.44457E2],"tree_param":{"num_deleted":"0","num_feature":"33","num_nodes":"127","size_leaf_vector":"1"}},{"base_weights":[-9.336187E-3,-9.038364E-2,1.9679661E-1,-1.2023135E-1,4.049811E-1,-5.3668663E-2,2.4020058E-1,1.4333074E-1,-1.6909929E-1,5.948662E-1,3.2294285E-1,3.5079777E-1,-1.2161851E-1,4.8689803E-1,1.941753E-1,-3.8414308E-1,3.681157E-1,-3.5431218E-1,-9.6559525E-2,5.067932E-1,9.3752444E-1,-7.8777033E-1,3.3575603E-1,-5.243306E-1,5.138185E-1,-4.8745614E-1,-7.3345155E-2,-2.0672169E-2,6.511405E-1,1.1244199E-2,2.7136642E-1,-6.099682E-1,-6.5418065E-2,4.4576454E-1,-6.611898E-1,-2.5519732E-1,-4.9684662E-1,-7.2505966E-2,-6.9130963E-1,5.517778E-1,-6.0478795E-2,1.093387E0,5.54527E-1,1.24706596E-1,-8.7546706E-1,3.7831837E-1,1.249878E-1,-3.986642E-1,-9.265264E-1,2.6712987E-1,8.2964194E-1,-5.379994E-1,-1.4899679E-1,4.908884E-1,-1.2029414E-1,-1.6035053E-1,4.3832085E-1,7.1770096E-1,4.857E-2,2.9638255E-1,-1.2602796E-1,1.374459E0,2.3955844E-1,-1.6520144E-1,-2.501954E-1,6.278728E-2,-1.583068E-1,-5.674292E-2,1.6766071E-1,-3.9069012E-1,1.0780579E-1,-1.0846095E-1,6.564242E-2,-2.3336677E-1,-1.1680132E-1,-3.4897827E-2,1.4187281E-1,-3.418029E-1,-1.6614601E-1,1.7178358E-1,-1.1864692E-1,-4.557625E-1,2.3313094E-2,3.8504303E-1,1.9242314E-1,-1.5665755E-1,2.2820304E-1,3.618482E-2,-2.9939055E-1,-6.9169514E-2,1.19001545E-1,-5.4684035E-2,7.0501484E-2,-2.7986664E-1,-7.972537E-2,-3.8421094E-1,-3.6831588E-2,3.8839987E-1,3.317377E-2,4.9856582E-1,-2.7787497E-3,-1.693376E-1,4.482055E-2,-9.305164E-2,1.17157735E-1,3.7957755E-1,-3.9463088E-2,-5.423159E-2,7.661308E-2,-7.6378666E-2,1.3055158E-1,2.3649275E-1,-1.0729838E-1,1.9639824E-1,4.0165573E-1,-2.1168685E-2,4.6531546E-1,-1.0096483E-2,1.670976E-1,-5.916872E-2,1.09416045E-1,4.4123235E-1,2.6091006E-1,7.948947E-2,-7.139873E-2],"categories":[],"categories_nodes":[],"categories_segments":[],"categories_sizes":[],"default_left":[0,0,0,0,0,0,0,0,0,0,0,0,0,0,0,0,0,0,0,0,0,0,0,0,0,0,0,0,0,0,0,0,0,0,0,0,0,0,0,0,0,0,0,0,0,0,0,0,0,0,0,0,0,0,0,0,0,0,0,0,0,0,0,0,0,0,0,0,0,0,0,0,0,0,0,0,0,0,0,0,0,0,0,0,0,0,0,0,0,0,0,0,0,0,0,0,0,0,0,0,0,0,0,0,0,0,0,0,0,0,0,0,0,0,0,0,0,0,0,0,0,0,0,0,0],"id":2,"left_children":[1,3,5,7,9,11,13,15,17,19,21,23,25,27,29,31,33,35,37,39,41,43,45,47,49,51,53,55,57,59,61,63,65,67,69,71,73,75,77,79,81,83,85,-1,87,89,91,93,95,97,99,101,103,105,107,109,111,113,115,117,119,121,123,-1,-1,-1,-1,-1,-1,-1,-1,-1,-1,-1,-1,-1,-1,-1,-1,-1,-1,-1,-1,-1,-1,-1,-1,-1,-1,-1,-1,-1,-1,-1,-1,-1,-1,-1,-1,-1,-1,-1,-1,-1,-1,-1,-1,-1,-1,-1,-1,-1,-1,-1,-1,-1,-1,-1,-1,-1,-1,-1,-1,-1,-1],"loss_changes":[1.729477E3,1.0986914E3,3.1762E2,9.026802E2,6.559296E1,1.18658295E2,2.826349E2,1.2999401E3,7.9428687E2,3.793878E1,4.226413E1,8.886848E1,6.523395E1,3.2634412E2,2.9634857E2,2.357695E2,6.146926E2,2.3492871E2,6.0772754E2,2.5929047E1,1.4860168E1,3.9474792E0,2.6130981E1,4.584589E0,4.0604553E1,7.286957E0,8.6581566E1,6.1487247E1,1.1858374E2,2.4384828E2,5.175271E2,2.5011108E1,1.7278758E2,5.134536E2,3.5354044E2,4.9486102E2,2.0586194E2,9.7599994E2,1.0108911E2,1.878415E1,1.5329445E1,1.4909866E1,1.7481907E1,0E0,4.021446E0,2.7217743E1,1.6667223E1,5.1795073E0,6.2703705E0,4.74212E1,1.6012872E2,6.892441E0,5.1071115E0,1.2119288E2,6.8571556E1,4.137372E1,6.2622517E1,1.0341016E2,5.2960392E1,1.7415138E2,1.4701656E2,1.8820984E1,1.741311E2,0E0,0E0,0E0,0E0,0E0,0E0,0E0,0E0,0E0,0E0,0E0,0E0,0E0,0E0,0E0,0E0,0E0,0E0,0E0,0E0,0E0,0E0,0E0,0E0,0E0,0E0,0E0,0E0,0E0,0E0,0E0,0E0,0E0,0E0,0E0,0E0,0E0,0E0,0E0,0E0,0E0,0E0,0E0,0E0,0E0,0E0,0E0,0E0,0E0,0E0,0E0,0E0,0E0,0E0,0E0,0E0,0E0,0E0,0E0,0E0,0E0,0E0],"parents":[2147483647,0,0,1,1,2,2,3,3,4,4,5,5,6,6,7,7,8,8,9,9,10,10,11,11,12,12,13,13,14,14,15,15,16,16,17,17,18,18,19,19,20,20,21,21,22,22,23,23,24,24,25,25,26,26,27,27,28,28,29,29,30,30,31,31,32,32,33,33,34,34,35,35,36,36,37,37,38,38,39,39,40,40,41,41,42,42,44,44,45,45,46,46,47,47,48,48,49,49,50,50,51,51,52,52,53,53,54,54,55,55,56,56,57,57,58,58,59,59,60,60,61,61,62,62],"right_children":[2,4,6,8,10,12,14,16,18,20,22,24,26,28,30,32,34,36,38,40,42,44,46,48,50,52,54,56,58,60,62,64,66,68,70,72,74,76,78,80,82,84,86,-1,88,90,92,94,96,98,100,102,104,106,108,110,112,114,116,118,120,122,124,-1,-1,-1,-1,-1,-1,-1,-1,-1,-1,-1,-1,-1,-1,-1,-1,-1,-1,-1,-1,-1,-1,-1,-1,-1,-1,-1,-1,-1,-1,-1,-1,-1,-1,-1,-1,-1,-1,-1,-1,-1,-1,-1,-1,-1,-1,-1,-1,-1,-1,-1,-1,-1,-1,-1,-1,-1,-1,-1,-1,-1,-1],"split_conditions":[1.3993027E0,2.7890384E-1,9E1,7E0,1.8E2,1E1,7E0,5E0,3E0,1.41E2,1E0,6E0,5E0,5E0,2.2E1,3.5E2,6E2,3.4E1,5.1E1,4.6E1,1.7E2,2E0,4.5E1,8.242881E-1,3.1E1,6.026348E-1,7E0,5.9E2,5.4E2,1.1E1,2.3E1,4E0,2E0,1.41E2,6.6E2,3.1E1,3.9E1,4.6E1,5.2E1,1.4E2,4.7E1,2.3E1,2E1,1.24706596E-1,7.522337E-1,3E0,3.9E2,-5.0703377E-1,-1.823908E-1,7E0,3.3E1,8E1,4.0490425E-1,6E1,3.9329463E-1,4.4448152E-1,6.3E2,5.2E2,6.7E2,4.7E2,3.3737187E0,5.5466127E-2,5.1E1,-1.6520144E-1,-2.501954E-1,6.278728E-2,-1.583068E-1,-5.674292E-2,1.6766071E-1,-3.9069012E-1,1.0780579E-1,-1.0846095E-1,6.564242E-2,-2.3336677E-1,-1.1680132E-1,-3.4897827E-2,1.4187281E-1,-3.418029E-1,-1.6614601E-1,1.7178358E-1,-1.1864692E-1,-4.557625E-1,2.3313094E-2,3.8504303E-1,1.9242314E-1,-1.5665755E-1,2.2820304E-1,3.618482E-2,-2.9939055E-1,-6.9169514E-2,1.19001545E-1,-5.4684035E-2,7.0501484E-2,-2.7986664E-1,-7.972537E-2,-3.8421094E-1,-3.6831588E-2,3.8839987E-1,3.317377E-2,4.9856582E-1,-2.7787497E-3,-1.693376E-1,4.482055E-2,-9.305164E-2,1.17157735E-1,3.7957755E-1,-3.9463088E-2,-5.423159E-2,7.661308E-2,-7.6378666E-2,1.3055158E-1,2.3649275E-1,-1.0729838E-1,1.9639824E-1,4.0165573E-1,-2.1168685E-2,4.6531546E-1,-1.0096483E-2,1.670976E-1,-5.916872E-2,1.09416045E-1,4.4123235E-1,2.6091006E-1,7.948947E-2,-7.139873E-2],"split_indices":[30,26,6,5,6,6,5,5,28,6,28,5,5,5,5,6,6,5,5,5,6,5,5,25,5,0,5,6,6,5,5,5,5,6,6,5,5,5,5,6,5,5,5,0,26,5,6,22,0,5,5,6,22,6,0,1,6,6,6,6,32,27,5,0,0,0,0,0,0,0,0,0,0,0,0,0,0,0,0,0,0,0,0,0,0,0,0,0,0,0,0,0,0,0,0,0,0,0,0,0,0,0,0,0,0,0,0,0,0,0,0,0,0,0,0,0,0,0,0,0,0,0,0,0,0],"split_type":[0,0,0,0,0,0,0,0,0,0,0,0,0,0,0,0,0,0,0,0,0,0,0,0,0,0,0,0,0,0,0,0,0,0,0,0,0,0,0,0,0,0,0,0,0,0,0,0,0,0,0,0,0,0,0,0,0,0,0,0,0,0,0,0,0,0,0,0,0,0,0,0,0,0,0,0,0,0,0,0,0,0,0,0,0,0,0,0,0,0,0,0,0,0,0,0,0,0,0,0,0,0,0,0,0,0,0,0,0,0,0,0,0,0,0,0,0,0,0,0,0,0,0,0,0],"sum_hessian":[1.035189E5,7.43044E4,2.92145E4,7.0082414E4,4.2219893E3,4.3148955E3,2.4899605E4,1.0961458E4,5.9120953E4,1.2718724E3,2.9501167E3,6.2003284E2,3.6948625E3,3.9134995E3,2.0986105E4,3.275218E3,7.6862397E3,1.6637418E4,4.2483535E4,1.01378076E3,2.580917E2,3.295468E1,2.917162E3,9.701582E1,5.23017E2,4.2965344E2,3.2652092E3,9.5697266E2,2.9565269E3,6.227953E3,1.4758152E4,1.9164495E3,1.3587687E3,7.147605E3,5.386347E2,9.815062E3,6.8223564E3,4.0833234E4,1.6503021E3,9.393202E2,7.44606E1,1.8212163E2,7.597007E1,1.9842877E0,3.0970392E1,2.4263853E3,4.9077676E2,7.543677E1,2.1579058E1,2.946852E2,2.2833182E2,3.7331546E2,5.6337986E1,2.5009601E2,3.015113E3,7.341965E2,2.227762E2,2.6622603E3,2.942665E2,2.0235422E3,4.204411E3,4.1244507E2,1.4345707E4,1.5180759E3,3.9837347E2,8.526317E2,5.0613702E2,1.0806646E3,6.0669404E3,3.3064536E2,2.0798936E2,8.016797E3,1.7982648E3,1.8859626E3,4.9363936E3,3.7797285E4,3.0359475E3,3.8580475E2,1.2644973E3,9.1949243E2,1.9827747E1,5.578634E0,6.8881966E1,1.2690779E2,5.5213833E1,1.1961608E1,6.400846E1,3.3933978E0,2.7576996E1,7.0659615E1,2.3557256E3,1.2922005E2,3.6155673E2,1.3830058E1,6.160671E1,1.456677E1,7.012287E0,3.799978E1,2.5668546E2,1.14128456E2,1.14203354E2,3.5965073E2,1.3664738E1,4.370637E1,1.2631613E1,1.1098562E2,1.391104E2,2.5974746E3,4.1763855E2,6.3437524E2,9.982123E1,1.547453E2,6.803089E1,2.418829E3,2.4343109E2,2.735312E2,2.0735346E1,8.93226E2,1.1303163E3,3.6722185E3,5.3219257E2,3.4474823E2,6.769684E1,1.3621474E4,7.2423334E2],"tree_param":{"num_deleted":"0","num_feature":"33","num_nodes":"125","size_leaf_vector":"1"}},{"base_weights":[-7.6642525E-3,-6.575276E-2,1.3775885E-1,6.472885E-4,-1.9370893E-1,-3.0851167E-2,1.7361484E-1,-6.171078E-2,3.2437077E-1,-4.445821E-1,-1.02527805E-1,2.5754717E-1,-6.929124E-2,3.805014E-1,1.2573807E-1,7.997116E-2,-1.6980441E-1,2.0907956E-1,7.513729E-1,-5.0993705E-1,4.768218E-1,2.956231E-1,-1.8770006E-1,4.678799E-2,6.365889E-1,-1.1144013E-1,2.3010373E-1,-4.0432858E-1,4.0096217E-1,9.800546E-2,4.2999205E-1,-2.8383276E-1,2.1014701E-1,-6.821727E-3,-2.942506E-1,5.53724E-1,-1.2185148E-1,1.7267191E0,2.6524183E-1,-5.773801E-1,-1.14243336E-1,5.889852E-1,5.660358E-2,-8.9418834E-1,4.6407238E-1,-1.24912545E-1,-5.300778E-1,-4.0750927E-1,1.8755306E-1,1.3647709E0,-6.513123E-3,-3.459872E-1,-7.0172906E-2,5.042478E-1,7.3600054E-2,-5.236936E-1,4.127634E-2,6.6748255E-1,3.327454E-1,1.3158639E-1,-2.8325713E-1,7.1373796E-1,-1.9111936E-1,-1.0122225E-1,1.05341695E-1,-4.9749743E-2,8.3416775E-2,2.18279E-2,-1.9208503E-1,-1.4175676E-1,-3.3857588E-2,5.4929334E-1,1.2734792E-1,-2.0130612E-1,6.3656636E-2,3.602792E-1,5.503138E-1,-1.7006344E-1,2.50801E-1,-1.0641075E-1,-2.1725132E-1,-2.3265323E-1,2.0731805E-1,2.2013652E-1,1.20702915E-1,7.484984E-2,-2.1060522E-1,3.916496E-1,-3.0119967E-1,4.5011145E-1,9.1578975E-2,-9.372668E-2,7.267476E-2,-2.8569096E-1,-1.2075286E-1,-1.4421688E-1,6.843976E-2,2.7648902E-1,2.31176E-2,4.1225585E-1,7.014886E-2,-1.1636486E-1,9.031595E-2,-6.6110454E-3,-1.9475688E-1,6.3899964E-2,-3.626059E-2,1.0786755E-1,3.1388438E-1,1.0314254E-1,-3.527471E-2,-1.1483906E-1,-3.5095108E-1,1.0957777E-1,-4.0958276E-1,-1.5069729E-1,2.2429028E-1,2.7308706E-2,1.3925E-1,3.2988876E-2,2.2640711E-1,-1.1483179E-1,1.1006236E-1,2.3446392E-1,4.995418E-2,-1.1543819E-1,2.0273183E-1],"categories":[],"categories_nodes":[],"categories_segments":[],"categories_sizes":[],"default_left":[0,0,0,0,0,0,0,0,0,0,0,0,0,0,0,0,0,0,0,0,0,0,0,0,0,0,0,0,0,0,0,0,0,0,0,0,0,0,0,0,0,0,0,0,0,0,0,0,0,0,0,0,0,0,0,0,0,0,0,0,0,0,0,0,0,0,0,0,0,0,0,0,0,0,0,0,0,0,0,0,0,0,0,0,0,0,0,0,0,0,0,0,0,0,0,0,0,0,0,0,0,0,0,0,0,0,0,0,0,0,0,0,0,0,0,0,0,0,0,0,0,0,0,0,0,0,0],"id":3,"left_children":[1,3,5,7,9,11,13,15,17,19,21,23,25,27,29,31,33,35,37,39,41,43,45,47,49,51,53,55,57,59,61,63,65,67,69,71,73,75,77,79,81,83,85,87,89,91,93,95,97,99,101,103,105,107,109,111,113,115,117,119,121,123,125,-1,-1,-1,-1,-1,-1,-1,-1,-1,-1,-1,-1,-1,-1,-1,-1,-1,-1,-1,-1,-1,-1,-1,-1,-1,-1,-1,-1,-1,-1,-1,-1,-1,-1,-1,-1,-1,-1,-1,-1,-1,-1,-1,-1,-1,-1,-1,-1,-1,-1,-1,-1,-1,-1,-1,-1,-1,-1,-1,-1,-1,-1,-1,-1],"loss_changes":[8.6293054E2,6.201912E2,1.7628363E2,9.7016046E2,5.7041437E2,5.671266E1,2.381159E2,6.171576E2,3.8197748E2,4.0054236E2,6.203556E2,4.803689E1,5.698073E1,7.271539E1,1.6472626E2,8.259774E2,4.6362177E2,6.973251E2,7.818232E2,1.6559729E2,2.0742523E1,6.465394E2,3.238723E2,2.487335E1,1.0065828E2,3.8276627E1,2.3873968E1,6.154087E0,7.984479E1,2.2918265E2,2.8757007E2,1.5647461E2,3.2799597E2,4.9901224E2,4.1908154E2,4.9355383E2,5.724121E2,2.8852295E1,5.239824E2,1.7309717E2,4.8258603E2,9.105034E0,1.3926721E1,9.796713E1,4.644057E2,8.7683984E2,1.2538013E2,4.393073E0,2.3996181E1,7.5201416E-1,1.3620686E1,5.81139E1,4.835073E1,1.5494427E1,1.8428246E1,7.837555E0,1.2021474E1,8.44306E1,1.1140683E2,2.2155191E2,9.389438E1,4.141864E1,8.625938E1,0E0,0E0,0E0,0E0,0E0,0E0,0E0,0E0,0E0,0E0,0E0,0E0,0E0,0E0,0E0,0E0,0E0,0E0,0E0,0E0,0E0,0E0,0E0,0E0,0E0,0E0,0E0,0E0,0E0,0E0,0E0,0E0,0E0,0E0,0E0,0E0,0E0,0E0,0E0,0E0,0E0,0E0,0E0,0E0,0E0,0E0,0E0,0E0,0E0,0E0,0E0,0E0,0E0,0E0,0E0,0E0,0E0,0E0,0E0,0E0,0E0,0E0,0E0,0E0],"parents":[2147483647,0,0,1,1,2,2,3,3,4,4,5,5,6,6,7,7,8,8,9,9,10,10,11,11,12,12,13,13,14,14,15,15,16,16,17,17,18,18,19,19,20,20,21,21,22,22,23,23,24,24,25,25,26,26,27,27,28,28,29,29,30,30,31,31,32,32,33,33,34,34,35,35,36,36,37,37,38,38,39,39,40,40,41,41,42,42,43,43,44,44,45,45,46,46,47,47,48,48,49,49,50,50,51,51,52,52,53,53,54,54,55,55,56,56,57,57,58,58,59,59,60,60,61,61,62,62],"right_children":[2,4,6,8,10,12,14,16,18,20,22,24,26,28,30,32,34,36,38,40,42,44,46,48,50,52,54,56,58,60,62,64,66,68,70,72,74,76,78,80,82,84,86,88,90,92,94,96,98,100,102,104,106,108,110,112,114,116,118,120,122,124,126,-1,-1,-1,-1,-1,-1,-1,-1,-1,-1,-1,-1,-1,-1,-1,-1,-1,-1,-1,-1,-1,-1,-1,-1,-1,-1,-1,-1,-1,-1,-1,-1,-1,-1,-1,-1,-1,-1,-1,-1,-1,-1,-1,-1,-1,-1,-1,-1,-1,-1,-1,-1,-1,-1,-1,-1,-1,-1,-1,-1,-1,-1,-1,-1],"split_conditions":[1.3993027E0,3.4E1,1.1E2,3E1,3.9E1,1E1,2.1E2,1.1E1,5.9E2,2.7890384E-1,4.1E1,3.1E1,4.4448152E-1,5E0,4.6E1,1.41E2,2.7E2,3.3E1,6E2,7.7E2,3.7E1,8E1,5.1E1,6E0,3.3E1,2E1,1.1E1,2.6245704E-1,7E0,4.5E1,5.1E1,2.7890384E-1,5E0,2.5E1,6E2,1E1,3.31E2,3E0,7E2,2.9E2,3.5E1,4.5E2,3.3737187E0,1E1,1.41E2,4.6E1,5.2E1,3.3737187E0,7E0,3.7986615E0,3.8E1,2.8E1,3E1,9E1,4E1,1.9624047E-1,1.7E2,1.41E2,2.2E1,4.4E1,2.8731384E0,7.8580743E-1,2.8731384E0,-1.0122225E-1,1.05341695E-1,-4.9749743E-2,8.3416775E-2,2.18279E-2,-1.9208503E-1,-1.4175676E-1,-3.3857588E-2,5.4929334E-1,1.2734792E-1,-2.0130612E-1,6.3656636E-2,3.602792E-1,5.503138E-1,-1.7006344E-1,2.50801E-1,-1.0641075E-1,-2.1725132E-1,-2.3265323E-1,2.0731805E-1,2.2013652E-1,1.20702915E-1,7.484984E-2,-2.1060522E-1,3.916496E-1,-3.0119967E-1,4.5011145E-1,9.1578975E-2,-9.372668E-2,7.267476E-2,-2.8569096E-1,-1.2075286E-1,-1.4421688E-1,6.843976E-2,2.7648902E-1,2.31176E-2,4.1225585E-1,7.014886E-2,-1.1636486E-1,9.031595E-2,-6.6110454E-3,-1.9475688E-1,6.3899964E-2,-3.626059E-2,1.0786755E-1,3.1388438E-1,1.0314254E-1,-3.527471E-2,-1.1483906E-1,-3.5095108E-1,1.0957777E-1,-4.0958276E-1,-1.5069729E-1,2.2429028E-1,2.7308706E-2,1.3925E-1,3.2988876E-2,2.2640711E-1,-1.1483179E-1,1.1006236E-1,2.3446392E-1,4.995418E-2,-1.1543819E-1,2.0273183E-1],"split_indices":[30,5,6,5,5,6,6,5,6,26,5,5,1,5,5,6,6,5,6,6,5,6,5,5,5,6,5,0,5,5,5,26,5,5,6,6,6,28,6,6,5,6,32,6,6,5,5,32,5,20,5,5,6,6,6,22,6,6,5,5,1,0,1,0,0,0,0,0,0,0,0,0,0,0,0,0,0,0,0,0,0,0,0,0,0,0,0,0,0,0,0,0,0,0,0,0,0,0,0,0,0,0,0,0,0,0,0,0,0,0,0,0,0,0,0,0,0,0,0,0,0,0,0,0,0,0,0],"split_type":[0,0,0,0,0,0,0,0,0,0,0,0,0,0,0,0,0,0,0,0,0,0,0,0,0,0,0,0,0,0,0,0,0,0,0,0,0,0,0,0,0,0,0,0,0,0,0,0,0,0,0,0,0,0,0,0,0,0,0,0,0,0,0,0,0,0,0,0,0,0,0,0,0,0,0,0,0,0,0,0,0,0,0,0,0,0,0,0,0,0,0,0,0,0,0,0,0,0,0,0,0,0,0,0,0,0,0,0,0,0,0,0,0,0,0,0,0,0,0,0,0,0,0,0,0,0,0],"sum_hessian":[1.02151195E5,7.299448E4,2.9156717E4,4.8057227E4,2.4937248E4,5.1130664E3,2.404365E4,4.029593E4,7.761298E3,6.646468E3,1.829078E4,6.006869E2,4.5123794E3,4.5171343E3,1.9526516E4,1.7438701E4,2.2857229E4,6.1124243E3,1.6488738E3,6.2066763E3,4.3979153E2,3.2228057E3,1.5067975E4,3.867597E2,2.139272E2,3.9560708E3,5.563087E2,1.1429444E2,4.40284E3,1.7896574E4,1.629942E3,4.595217E3,1.2843483E4,9.896802E3,1.2960427E4,2.993845E3,3.1185793E3,5.4761584E2,1.1012579E3,5.302453E3,9.042229E2,3.4681824E2,9.297329E1,3.991528E2,2.8236528E3,1.2734079E4,2.3338955E3,9.104174E1,2.9571796E2,9.9800865E1,1.1412633E2,5.90801E2,3.3652698E3,2.0136324E2,3.549455E2,9.000846E1,2.4285984E1,8.9547327E2,3.5073667E3,1.6448477E4,1.4480975E3,1.1187211E3,5.1122098E2,4.238102E3,3.5711447E2,1.9646577E3,1.0878826E4,8.793025E3,1.1037771E3,6.5356206E3,6.424806E3,2.738712E2,2.7199739E3,1.1791024E3,1.9394768E3,9.513786E1,4.5247797E2,4.480489E2,6.53209E2,2.108037E3,3.1944163E3,4.965349E2,4.07688E2,1.936481E2,1.5317015E2,7.466038E1,1.8312912E1,1.8460932E1,3.8069186E2,3.7409186E2,2.449561E3,8.429353E3,4.304726E3,5.4003235E2,1.7938632E3,8.185711E1,9.184634E0,3.7728065E1,2.579899E2,9.876356E1,1.0373065E0,5.0833595E1,6.3292732E1,2.8614642E2,3.046546E2,5.1050787E2,2.854762E3,1.6024982E2,4.111341E1,1.4674483E2,2.0820068E2,7.52024E1,1.480606E1,2.034099E1,3.9449935E0,5.708308E1,8.383902E2,1.2359108E3,2.2714558E3,1.5897949E4,5.5052747E2,1.2562196E3,1.9187796E2,9.9499915E2,1.237219E2,4.183193E2,9.290167E1],"tree_param":{"num_deleted":"0","num_feature":"33","num_nodes":"127","size_leaf_vector":"1"}},{"base_weights":[-6.9243205E-3,-3.0221822E-2,2.7269885E-1,-1.7842296E-1,1.5740095E-2,3.5160607E-1,1.9131891E-1,-5.3571388E-2,-2.7242857E-1,-1.431864E-1,5.3896073E-2,3.7812024E-1,6.3403537E-3,1.508035E-1,3.4572342E-1,-4.2175806E-1,5.6376286E-2,-4.7435183E-3,-3.2029337E-1,1.1548654E-1,-1.735725E-1,2.706322E-1,9.383768E-3,1.2257188E-1,4.1900766E-1,7.086515E-2,-9.211084E-1,1.7863965E-1,-1.7490195E-1,9.7474647E-1,2.531324E-1,-4.309342E-1,9.6487486E-1,1.4098443E-1,-1.2698317E-1,-4.354509E-1,1.0610575E-1,-3.2713693E-1,6.5679973E-1,-5.27329E-1,2.2440213E-1,-4.2272085E-1,-1.3466793E-1,3.2552218E-1,-1.8830484E-1,1.7001373E-1,-3.5796996E-2,-1.1113753E-1,2.792841E-1,8.129743E-1,3.9404926E-1,-5.6949444E-2,1.3587396E0,2.5171432E-1,-1.1141298E0,1.23503625E-1,3.293155E-1,-4.0699077E-1,9.3364084E-1,2.2844696E-1,1.2023417E0,-8.4815615E-1,2.993508E-1,-1.0957169E-1,-1.6584675E-1,4.1110417E-1,4.259064E-3,1.1227564E-2,9.839196E-2,-1.1336649E-1,-1.1692087E-2,-1.00598104E-1,-2.8803045E-1,9.006324E-2,-8.3901376E-2,-7.086186E-2,-1.23943254E-1,4.3103388E-1,-8.1502095E-2,2.4086685E-1,-1.7059813E-1,1.2825723E-1,-1.1597552E-1,-1.3626927E-1,3.8787082E-1,-6.609745E-2,-1.5486355E-2,7.040728E-2,3.2974264E-1,-5.23522E-1,-4.473249E-2,-5.8487322E-2,7.929526E-2,-7.4662484E-2,5.684385E-3,-4.607334E-2,3.3453786E-1,-2.8854394E-2,1.02846615E-1,-6.82124E-2,3.046115E-1,-2.702453E-1,1.2232946E-1,2.467869E-4,-2.3834401E-1,4.410062E-1,-6.2333677E-2,-1.4918765E-1,2.6717284E-1,4.798145E-2,-4.239322E-1,4.105881E-2,-2.579854E-1,1.3639909E-1,5.0212525E-2,-1.4828244E-2,-2.4055131E-1,4.441158E-1,-4.9635515E-1,1.5002567E-1,-1.9981839E-1,4.0833613E-1,5.5332035E-2,-3.9593095E-1,-1.1359977E-1,4.7490012E-2,1.6091777E-1],"categories":[],"categories_nodes":[],"categories_segments":[],"categories_sizes":[],"default_left":[0,0,0,0,0,0,0,0,0,0,0,0,0,0,0,0,0,0,0,0,0,0,0,0,0,0,0,0,0,0,0,0,0,0,0,0,0,0,0,0,0,0,0,0,0,0,0,0,0,0,0,0,0,0,0,0,0,0,0,0,0,0,0,0,0,0,0,0,0,0,0,0,0,0,0,0,0,0,0,0,0,0,0,0,0,0,0,0,0,0,0,0,0,0,0,0,0,0,0,0,0,0,0,0,0,0,0,0,0,0,0,0,0,0,0,0,0,0,0,0,0,0,0,0,0,0,0],"id":4,"left_children":[1,3,5,7,9,11,13,15,17,19,21,23,25,27,29,31,33,35,37,39,41,43,45,47,49,51,53,55,57,59,61,63,65,67,69,71,73,75,77,79,81,83,85,87,89,91,93,95,97,99,101,103,105,107,109,111,113,115,117,119,121,123,125,-1,-1,-1,-1,-1,-1,-1,-1,-1,-1,-1,-1,-1,-1,-1,-1,-1,-1,-1,-1,-1,-1,-1,-1,-1,-1,-1,-1,-1,-1,-1,-1,-1,-1,-1,-1,-1,-1,-1,-1,-1,-1,-1,-1,-1,-1,-1,-1,-1,-1,-1,-1,-1,-1,-1,-1,-1,-1,-1,-1,-1,-1,-1,-1],"loss_changes":[6.562428E2,6.3339795E2,4.9683105E1,2.5833398E2,4.3041E2,3.599582E1,2.382106E1,3.8281543E2,1.6088623E2,1.0803018E2,5.521776E2,3.8105957E1,1.6908695E1,2.745475E1,4.5906914E1,2.8084473E1,1.1299608E2,9.1032845E1,7.144385E1,1.01295845E2,1.19143036E2,2.4572473E2,3.4462302E2,1.8530966E1,3.0630737E1,4.354714E1,4.441169E0,2.3113518E1,6.1782276E1,1.6936485E1,3.5482613E1,1.7101715E1,5.6101103E0,9.649178E1,5.0771706E1,2.0179161E1,1.1363846E2,8.263574E1,5.428571E1,1.198465E1,1.5361525E2,9.034961E1,7.56629E1,6.1182697E2,6.3346992E1,3.5883926E2,4.3232666E2,1.0760174E1,7.253105E0,3.952079E1,5.2974854E1,1.0277702E1,4.4687157E0,2.0760794E0,6.3078594E0,2.6946081E1,1.5067863E1,2.7920074E1,6.1344234E1,6.386944E0,1.2260719E1,5.730398E0,2.2148678E1,0E0,0E0,0E0,0E0,0E0,0E0,0E0,0E0,0E0,0E0,0E0,0E0,0E0,0E0,0E0,0E0,0E0,0E0,0E0,0E0,0E0,0E0,0E0,0E0,0E0,0E0,0E0,0E0,0E0,0E0,0E0,0E0,0E0,0E0,0E0,0E0,0E0,0E0,0E0,0E0,0E0,0E0,0E0,0E0,0E0,0E0,0E0,0E0,0E0,0E0,0E0,0E0,0E0,0E0,0E0,0E0,0E0,0E0,0E0,0E0,0E0,0E0,0E0,0E0],"parents":[2147483647,0,0,1,1,2,2,3,3,4,4,5,5,6,6,7,7,8,8,9,9,10,10,11,11,12,12,13,13,14,14,15,15,16,16,17,17,18,18,19,19,20,20,21,21,22,22,23,23,24,24,25,25,26,26,27,27,28,28,29,29,30,30,31,31,32,32,33,33,34,34,35,35,36,36,37,37,38,38,39,39,40,40,41,41,42,42,43,43,44,44,45,45,46,46,47,47,48,48,49,49,50,50,51,51,52,52,53,53,54,54,55,55,56,56,57,57,58,58,59,59,60,60,61,61,62,62],"right_children":[2,4,6,8,10,12,14,16,18,20,22,24,26,28,30,32,34,36,38,40,42,44,46,48,50,52,54,56,58,60,62,64,66,68,70,72,74,76,78,80,82,84,86,88,90,92,94,96,98,100,102,104,106,108,110,112,114,116,118,120,122,124,126,-1,-1,-1,-1,-1,-1,-1,-1,-1,-1,-1,-1,-1,-1,-1,-1,-1,-1,-1,-1,-1,-1,-1,-1,-1,-1,-1,-1,-1,-1,-1,-1,-1,-1,-1,-1,-1,-1,-1,-1,-1,-1,-1,-1,-1,-1,-1,-1,-1,-1,-1,-1,-1,-1,-1,-1,-1,-1,-1,-1,-1,-1,-1,-1],"split_conditions":[2.8731384E0,4E0,3.6E2,2E0,1.3E2,5E1,4.3E1,1E0,6E0,1E1,2.1E2,6E0,3.3E2,3.8E1,4.5E1,9.89E2,3.4E1,2E2,9.89E2,6E0,2E1,4.7E1,1.1E1,1.3091578E0,8E0,3.1E2,2E0,2.9E1,7.3E2,5.4E2,3.9E2,3.4E1,1.5E1,2.2E1,3.9E1,1.4E2,4.8E2,3.4E2,1.5E1,2E0,3.3E1,5.4E1,2.2E1,4.4E1,4.9E1,3.9E2,2E1,3.3E2,6E1,1E1,1E1,3E2,5.3E1,6.9383473E0,1.6314409E0,2.8E1,6.1E2,5.5E2,7.8E2,3.0064798E-4,8.3E2,3.8E2,4.6E1,-1.0957169E-1,-1.6584675E-1,4.1110417E-1,4.259064E-3,1.1227564E-2,9.839196E-2,-1.1336649E-1,-1.1692087E-2,-1.00598104E-1,-2.8803045E-1,9.006324E-2,-8.3901376E-2,-7.086186E-2,-1.23943254E-1,4.3103388E-1,-8.1502095E-2,2.4086685E-1,-1.7059813E-1,1.2825723E-1,-1.1597552E-1,-1.3626927E-1,3.8787082E-1,-6.609745E-2,-1.5486355E-2,7.040728E-2,3.2974264E-1,-5.23522E-1,-4.473249E-2,-5.8487322E-2,7.929526E-2,-7.4662484E-2,5.684385E-3,-4.607334E-2,3.3453786E-1,-2.8854394E-2,1.02846615E-1,-6.82124E-2,3.046115E-1,-2.702453E-1,1.2232946E-1,2.467869E-4,-2.3834401E-1,4.410062E-1,-6.2333677E-2,-1.4918765E-1,2.6717284E-1,4.798145E-2,-4.239322E-1,4.105881E-2,-2.579854E-1,1.3639909E-1,5.0212525E-2,-1.4828244E-2,-2.4055131E-1,4.441158E-1,-4.9635515E-1,1.5002567E-1,-1.9981839E-1,4.0833613E-1,5.5332035E-2,-3.9593095E-1,-1.1359977E-1,4.7490012E-2,1.6091777E-1],"split_indices":[1,28,6,28,6,5,5,28,5,6,6,5,6,5,5,6,5,6,6,5,6,5,5,0,5,6,28,5,6,6,6,5,5,5,5,6,6,6,5,5,5,5,5,5,5,6,5,6,6,6,5,6,5,32,31,5,6,6,6,23,6,6,5,0,0,0,0,0,0,0,0,0,0,0,0,0,0,0,0,0,0,0,0,0,0,0,0,0,0,0,0,0,0,0,0,0,0,0,0,0,0,0,0,0,0,0,0,0,0,0,0,0,0,0,0,0,0,0,0,0,0,0,0,0,0,0,0],"split_type":[0,0,0,0,0,0,0,0,0,0,0,0,0,0,0,0,0,0,0,0,0,0,0,0,0,0,0,0,0,0,0,0,0,0,0,0,0,0,0,0,0,0,0,0,0,0,0,0,0,0,0,0,0,0,0,0,0,0,0,0,0,0,0,0,0,0,0,0,0,0,0,0,0,0,0,0,0,0,0,0,0,0,0,0,0,0,0,0,0,0,0,0,0,0,0,0,0,0,0,0,0,0,0,0,0,0,0,0,0,0,0,0,0,0,0,0,0,0,0,0,0,0,0,0,0,0,0],"sum_hessian":[1.0073312E5,9.29866E4,7.746518E3,2.2010932E4,7.097567E4,3.9313252E3,3.8151929E3,9.455019E3,1.2555913E4,1.3740648E4,5.723502E4,3.6508672E3,2.8045804E2,3.023745E3,7.914477E2,2.1735427E3,7.281476E3,1.9047349E3,1.0651179E4,1.4441321E3,1.2296517E4,9.751013E3,4.7484008E4,5.0411588E2,3.1467512E3,2.6307864E2,1.7379408E1,2.7860862E3,2.3765906E2,1.0032898E2,6.911187E2,2.1599385E3,1.3604279E1,4.982579E3,2.2988965E3,3.8927386E2,1.5154609E3,1.0577757E4,7.342155E1,2.0867844E2,1.2354537E3,1.6594406E3,1.0637076E4,8.709612E3,1.0414E3,1.0423359E4,3.706065E4,2.0246494E2,3.0165094E2,1.8559372E2,2.9611575E3,2.4019624E2,2.28824E1,2.4130893E0,1.4966319E1,2.0410391E3,7.450471E2,1.9703906E2,4.0620003E1,2.391474E1,7.641424E1,2.71375E1,6.639812E2,1.4060848E3,7.5385376E2,9.227309E0,4.376969E0,3.2074246E3,1.7751548E3,5.9612335E2,1.7027732E3,3.282668E2,6.1007042E1,1.0083354E3,5.0712558E2,5.143529E3,5.434228E3,3.9604042E1,3.381751E1,5.7332373E0,2.029452E2,9.274307E2,3.0802295E2,1.6302341E3,2.9206491E1,5.235437E3,5.4016387E3,7.795626E3,9.1398645E2,2.4507683E1,1.01689233E3,2.1400278E3,8.283331E3,7.574741E3,2.9485908E4,1.9653764E2,5.927291E0,4.358427E1,2.5806668E2,3.0206259E1,1.5538745E2,3.0358734E1,2.9307988E3,2.2367432E2,1.652192E1,2.1422226E1,1.4601746E0,1.2127954E0,1.2002939E0,2.9329295E0,1.203339E1,2.0145348E3,2.6504223E1,4.1895352E2,3.260936E2,1.0399187E2,9.3047195E1,3.3889008E1,6.730994E0,1.8682343E1,5.2323966E0,6.5811386E1,1.0602851E1,1.26346445E1,1.4502856E1,4.1732275E2,2.4665848E2],"tree_param":{"num_deleted":"0","num_feature":"33","num_nodes":"127","size_leaf_vector":"1"}},{"base_weights":[-5.480579E-3,3.6181595E-2,-8.663732E-2,-1.169013E-2,2.752803E-1,-3.2844454E-1,-8.7039487E-4,3.5491523E-3,-7.949266E-1,1.7823166E-1,6.0888475E-1,-3.8648242E-1,2.7565897E-1,3.1136644E-1,-7.054934E-2,-3.316116E-2,1.3362254E-1,-1.4665212E-1,-9.922403E-1,3.3528703E-1,-2.4315593E-1,1.3620186E0,2.2712304E-1,-3.2551146E-1,-8.969598E-1,-4.5354772E-1,3.5355267E-1,-5.528385E-1,4.1984323E-1,-4.189527E-1,-2.2493187E-2,3.368445E-2,-4.2027688E-1,6.559542E-1,-1.1111005E-2,-2.5224304E-1,9.510521E-1,-1.0759696E0,-9.74266E-2,6.797186E-2,1.0568227E0,-1.0610011E-1,-7.675636E-1,1.2004931E0,1.66483E0,-4.9675488E-1,6.627764E-1,-5.0121963E-2,-4.3648666E-1,-3.5530517E-1,-1.2474469E0,1.6902052E-1,-9.9397033E-1,3.8126603E-1,-3.2873073E-1,1.238347E0,-6.65057E-1,1.4300216E0,3.4593445E-1,-3.3877352E-1,-1.0025103E0,3.2441196E-1,-8.269034E-2,-3.649183E-2,2.6788244E-2,-1.4093031E-1,2.830445E-2,-6.6983916E-2,3.660459E-1,-1.0356354E-1,8.1222825E-2,-1.1313117E-1,1.5476435E-1,4.1119307E-1,-2.4117857E-1,-2.2800498E-1,-3.518732E-1,4.1319314E-1,-3.5920015E-1,8.476636E-2,-1.1999116E-1,2.2720712E-1,4.1676617E-1,-1.507557E-1,4.8692737E-2,-2.96402E-1,-1.3805406E-1,2.5242004E-1,3.8228834E-1,5.166188E-1,2.5356269E-2,6.733917E-2,-2.5838718E-1,3.9346865E-1,-5.807175E-2,-1.391368E-1,8.116668E-2,-2.523628E-1,-6.080326E-2,-2.0194604E-1,7.0278764E-1,-3.3272204E-1,-4.686405E-1,-6.1216086E-2,2.1918318E-1,-2.0225672E-1,-4.2016596E-1,8.53878E-2,1.6343862E-1,1.6229552E-1,-1.7066409E-1,2.694319E-1,4.97457E-1,-2.4119624E-1,1.5505853E-1,4.8868412E-1,-4.4700214E-1,7.12458E-2,3.1413612E-1,-1.3392188E-1,7.157995E-2,-3.4160477E-1,1.4517401E-1,7.185846E-3,2.3003824E-1,2.1287583E-2,-8.645352E-2],"categories":[],"categories_nodes":[],"categories_segments":[],"categories_sizes":[],"default_left":[0,0,0,0,0,0,0,0,0,0,0,0,0,0,0,0,0,0,0,0,0,0,0,0,0,0,0,0,0,0,0,0,0,0,0,0,0,0,0,0,0,0,0,0,0,0,0,0,0,0,0,0,0,0,0,0,0,0,0,0,0,0,0,0,0,0,0,0,0,0,0,0,0,0,0,0,0,0,0,0,0,0,0,0,0,0,0,0,0,0,0,0,0,0,0,0,0,0,0,0,0,0,0,0,0,0,0,0,0,0,0,0,0,0,0,0,0,0,0,0,0,0,0,0,0,0,0],"id":5,"left_children":[1,3,5,7,9,11,13,15,17,19,21,23,25,27,29,31,33,35,37,39,41,43,45,47,49,51,53,55,57,59,61,63,65,67,69,71,73,75,77,79,81,83,85,87,89,91,93,95,97,99,101,103,105,107,109,111,113,115,117,119,121,123,125,-1,-1,-1,-1,-1,-1,-1,-1,-1,-1,-1,-1,-1,-1,-1,-1,-1,-1,-1,-1,-1,-1,-1,-1,-1,-1,-1,-1,-1,-1,-1,-1,-1,-1,-1,-1,-1,-1,-1,-1,-1,-1,-1,-1,-1,-1,-1,-1,-1,-1,-1,-1,-1,-1,-1,-1,-1,-1,-1,-1,-1,-1,-1,-1],"loss_changes":[3.372335E2,7.543663E2,7.016644E2,6.554372E2,3.558415E2,3.1068683E2,5.434016E2,2.5721423E2,1.3391248E2,5.6382104E2,7.1192285E2,2.5126306E2,4.429613E1,4.2742383E2,3.4187778E2,1.08711E3,8.963379E2,2.8721584E1,6.008069E1,1.196878E3,1.6618764E2,3.87489E1,5.191253E2,2.2067743E2,1.6315814E2,2.5546309E1,1.341037E1,1.0306085E2,3.0182764E2,1.1546802E2,3.747817E2,3.0945053E2,1.5759802E2,1.276397E3,8.7442896E2,2.1769665E1,1.713468E1,2.1604614E1,1.1492635E2,4.5490317E2,1.6593176E2,1.9535121E2,3.2014313E1,1.3420776E1,2.5831543E1,1.6284459E2,5.710832E2,2.7542938E2,4.86893E2,2.93099E2,2.1033386E1,7.671832E0,4.324604E0,1.0522392E1,6.1478815E0,2.8442955E0,7.911803E1,1.6259772E2,2.867755E2,1.354327E2,6.0966217E1,3.5271725E2,4.8286414E2,0E0,0E0,0E0,0E0,0E0,0E0,0E0,0E0,0E0,0E0,0E0,0E0,0E0,0E0,0E0,0E0,0E0,0E0,0E0,0E0,0E0,0E0,0E0,0E0,0E0,0E0,0E0,0E0,0E0,0E0,0E0,0E0,0E0,0E0,0E0,0E0,0E0,0E0,0E0,0E0,0E0,0E0,0E0,0E0,0E0,0E0,0E0,0E0,0E0,0E0,0E0,0E0,0E0,0E0,0E0,0E0,0E0,0E0,0E0,0E0,0E0,0E0,0E0,0E0],"parents":[2147483647,0,0,1,1,2,2,3,3,4,4,5,5,6,6,7,7,8,8,9,9,10,10,11,11,12,12,13,13,14,14,15,15,16,16,17,17,18,18,19,19,20,20,21,21,22,22,23,23,24,24,25,25,26,26,27,27,28,28,29,29,30,30,31,31,32,32,33,33,34,34,35,35,36,36,37,37,38,38,39,39,40,40,41,41,42,42,43,43,44,44,45,45,46,46,47,47,48,48,49,49,50,50,51,51,52,52,53,53,54,54,55,55,56,56,57,57,58,58,59,59,60,60,61,61,62,62],"right_children":[2,4,6,8,10,12,14,16,18,20,22,24,26,28,30,32,34,36,38,40,42,44,46,48,50,52,54,56,58,60,62,64,66,68,70,72,74,76,78,80,82,84,86,88,90,92,94,96,98,100,102,104,106,108,110,112,114,116,118,120,122,124,126,-1,-1,-1,-1,-1,-1,-1,-1,-1,-1,-1,-1,-1,-1,-1,-1,-1,-1,-1,-1,-1,-1,-1,-1,-1,-1,-1,-1,-1,-1,-1,-1,-1,-1,-1,-1,-1,-1,-1,-1,-1,-1,-1,-1,-1,-1,-1,-1,-1,-1,-1,-1,-1,-1,-1,-1,-1,-1,-1,-1,-1,-1,-1,-1],"split_conditions":[3.4E1,3E1,3.9E1,2.8E1,5.9E2,2.7890384E-1,4.1E1,2.2E1,1E2,3.4E2,6E2,3.8E1,1E2,8E1,4.4E1,1.7E1,2.3E1,9E1,7.8E2,3E2,4.3E2,1.3993027E0,7E2,2.9E2,1.7E2,5E1,9E2,1E1,1.2E2,4.3E2,4.5E1,1.5E2,2.7890384E-1,9E1,4.8E2,2.8731384E0,1.2227241E0,2.3E2,8.01E2,3.3E1,3.31E2,4E2,5.3E2,3E0,2.8731384E0,6.2E2,7.1E2,1.3E2,5.1E2,1.6E2,1.3993027E0,-3.5504407E-1,-3.0094606E-1,1.072497E0,3E0,-3.4259185E-3,2.8731384E0,2.7890384E-1,7.5E2,3.9E2,2.7890384E-1,6.1E2,4.5E2,-3.649183E-2,2.6788244E-2,-1.4093031E-1,2.830445E-2,-6.6983916E-2,3.660459E-1,-1.0356354E-1,8.1222825E-2,-1.1313117E-1,1.5476435E-1,4.1119307E-1,-2.4117857E-1,-2.2800498E-1,-3.518732E-1,4.1319314E-1,-3.5920015E-1,8.476636E-2,-1.1999116E-1,2.2720712E-1,4.1676617E-1,-1.507557E-1,4.8692737E-2,-2.96402E-1,-1.3805406E-1,2.5242004E-1,3.8228834E-1,5.166188E-1,2.5356269E-2,6.733917E-2,-2.5838718E-1,3.9346865E-1,-5.807175E-2,-1.391368E-1,8.116668E-2,-2.523628E-1,-6.080326E-2,-2.0194604E-1,7.0278764E-1,-3.3272204E-1,-4.686405E-1,-6.1216086E-2,2.1918318E-1,-2.0225672E-1,-4.2016596E-1,8.53878E-2,1.6343862E-1,1.6229552E-1,-1.7066409E-1,2.694319E-1,4.97457E-1,-2.4119624E-1,1.5505853E-1,4.8868412E-1,-4.4700214E-1,7.12458E-2,3.1413612E-1,-1.3392188E-1,7.157995E-2,-3.4160477E-1,1.4517401E-1,7.185846E-3,2.3003824E-1,2.1287583E-2,-8.645352E-2],"split_indices":[5,5,5,5,6,26,5,5,6,6,6,5,6,6,5,5,5,6,6,6,6,30,6,6,6,6,6,6,6,6,5,6,26,6,6,1,31,6,6,5,6,6,6,28,1,6,6,6,6,6,30,22,22,29,28,31,1,26,6,6,26,6,6,0,0,0,0,0,0,0,0,0,0,0,0,0,0,0,0,0,0,0,0,0,0,0,0,0,0,0,0,0,0,0,0,0,0,0,0,0,0,0,0,0,0,0,0,0,0,0,0,0,0,0,0,0,0,0,0,0,0,0,0,0,0,0,0],"split_type":[0,0,0,0,0,0,0,0,0,0,0,0,0,0,0,0,0,0,0,0,0,0,0,0,0,0,0,0,0,0,0,0,0,0,0,0,0,0,0,0,0,0,0,0,0,0,0,0,0,0,0,0,0,0,0,0,0,0,0,0,0,0,0,0,0,0,0,0,0,0,0,0,0,0,0,0,0,0,0,0,0,0,0,0,0,0,0,0,0,0,0,0,0,0,0,0,0,0,0,0,0,0,0,0,0,0,0,0,0,0,0,0,0,0,0,0,0,0,0,0,0,0,0,0,0,0,0],"sum_hessian":[9.973688E4,6.5904875E4,3.3832008E4,5.4911574E4,1.0993302E4,8.857307E3,2.4974701E4,5.3864535E4,1.0470366E3,8.517124E3,2.476177E3,8.081276E3,7.760302E2,4.5558975E3,2.0418803E4,4.200914E4,1.1855396E4,2.4472751E2,8.023091E2,6.2047544E3,2.3123699E3,8.320848E2,1.6440923E3,7.2205034E3,8.607726E2,7.4429665E1,7.016005E2,5.0763242E2,4.048265E3,2.4740942E3,1.7944709E4,3.582409E4,6.185049E3,2.5715066E3,9.28389E3,2.2395494E2,2.077258E1,7.3347424E2,6.883483E1,4.528227E3,1.6765275E3,1.8341981E3,4.781719E2,5.4587115E2,2.8621365E2,6.1765753E2,1.0264347E3,2.0743557E3,5.146148E3,3.389545E2,5.218181E2,3.4905586E1,3.952408E1,6.7463885E2,2.6961672E1,2.9336727E1,4.782957E2,2.7474374E2,3.7735212E3,2.176614E3,2.974801E2,2.6527883E3,1.5291921E4,9.444209E3,2.6379883E4,5.642504E3,5.42545E2,1.0053685E3,1.5661381E3,4.248099E3,5.035791E3,1.930785E2,3.0876423E1,1.6941177E1,3.8314009E0,1.7428378E2,5.591905E2,2.9299007E1,3.9535824E1,3.1048455E3,1.4233816E3,8.8367804E2,7.928494E2,7.401636E2,1.0940344E3,2.7717725E2,2.0099466E2,9.5176025E1,4.506951E2,2.7612384E2,1.0089821E1,2.0750389E2,4.1015363E2,5.8368933E2,4.4274533E2,9.056455E2,1.1687101E3,1.8833972E3,3.2627505E3,3.0390176E2,3.5052742E1,3.655876E2,1.562305E2,2.135544E1,1.3550144E1,2.361155E1,1.591253E1,4.257665E2,2.4887238E2,5.562834E0,2.1398838E1,1.7938505E1,1.1398222E1,4.2827344E2,5.0022274E1,2.5763467E2,1.7109077E1,3.269227E3,5.0429428E2,1.8348013E3,3.4181287E2,2.7272916E2,2.4750938E1,1.580435E3,1.0723531E3,8.7499795E3,6.5419414E3],"tree_param":{"num_deleted":"0","num_feature":"33","num_nodes":"127","size_leaf_vector":"1"}},{"base_weights":[-5.315707E-3,-4.1516658E-2,8.349593E-2,-2.5101779E-2,-3.3596656E-1,6.735238E-2,2.649431E-1,-4.551644E-2,4.4578084E-1,-3.8960415E-1,-4.793287E-2,1.816242E-1,4.354683E-2,5.0741297E-1,-1.7527813E-1,-2.5140036E-2,-3.137862E-1,-4.5092657E-1,6.905463E-1,-5.978949E-1,-3.1499812E-1,1.0869594E0,-3.4339693E-1,-1.313361E-1,3.1289813E-1,2.1929815E-2,2.0618151E-1,7.004115E-1,2.686537E-1,-2.7187896E-1,2.4418736E-1,-3.0116905E-2,7.113158E-1,2.6026297E-1,-5.862007E-1,-8.3837384E-1,4.0020593E-2,9.238655E-1,4.140886E-1,-6.388365E-1,1.4334852E-1,-1.5958633E-1,-4.8791757E-1,-1.8543027E-1,1.8071781E0,-5.0683653E-1,2.7618024E-1,-1.9452901E-1,1.763604E-1,3.4854132E-1,-3.1963226E-1,-3.8332462E-2,7.4564815E-2,-2.3152806E-1,2.3378794E-1,1.1747023E0,6.159685E-1,3.9160484E-1,-5.423121E-1,-4.618277E-1,1.8082301E-1,4.342851E-1,-4.0507764E-1,-5.49616E-3,-8.2189694E-2,2.777229E-1,1.098675E-3,-2.3088131E-2,2.569944E-1,-2.1684332E-1,-7.2775096E-2,5.193645E-2,-2.9411656E-1,1.1971759E-1,-3.2252014E-1,2.2676733E-1,5.438119E-1,-2.2590728E-1,1.7227136E-1,-1.4118397E-1,-2.2644104E-1,-4.20171E-3,4.2243585E-1,-1.0682248E-1,4.128705E-2,-1.6706671E-1,1.10507034E-1,7.686513E-1,-1.2596063E-1,9.092739E-1,3.1188205E-2,-3.672203E-2,-2.1924102E-1,2.248692E-2,2.1239004E-1,-3.6234394E-2,-2.09572E-1,2.0165564E-1,-4.9582966E-2,1.179075E-1,-1.3678216E-2,-2.3140745E-1,7.294665E-2,-2.769387E-3,-3.210698E-1,8.280222E-2,-1.2267754E-2,9.143737E-2,-9.732621E-2,7.9995535E-2,-1.8445311E-2,-4.4016233E-3,3.843837E-1,1.0823222E-1,2.0950952E-1,3.886734E-2,2.5534424E-1,-2.1352829E-1,-2.5122238E-2,-1.6490063E-1,-7.097637E-2,-3.870924E-2,1.9011454E-1,-3.5517872E-3,2.3299463E-1,2.1958113E-1,-1.8218625E-1],"categories":[],"categories_nodes":[],"categories_segments":[],"categories_sizes":[],"default_left":[0,0,0,0,0,0,0,0,0,0,0,0,0,0,0,0,0,0,0,0,0,0,0,0,0,0,0,0,0,0,0,0,0,0,0,0,0,0,0,0,0,0,0,0,0,0,0,0,0,0,0,0,0,0,0,0,0,0,0,0,0,0,0,0,0,0,0,0,0,0,0,0,0,0,0,0,0,0,0,0,0,0,0,0,0,0,0,0,0,0,0,0,0,0,0,0,0,0,0,0,0,0,0,0,0,0,0,0,0,0,0,0,0,0,0,0,0,0,0,0,0,0,0,0,0,0,0],"id":6,"left_children":[1,3,5,7,9,11,13,15,17,19,21,23,25,27,29,31,33,35,37,39,41,43,45,47,49,51,53,55,57,59,61,63,65,67,69,71,73,75,77,79,81,83,85,87,89,91,93,95,97,99,101,103,105,107,109,111,113,115,117,119,121,123,125,-1,-1,-1,-1,-1,-1,-1,-1,-1,-1,-1,-1,-1,-1,-1,-1,-1,-1,-1,-1,-1,-1,-1,-1,-1,-1,-1,-1,-1,-1,-1,-1,-1,-1,-1,-1,-1,-1,-1,-1,-1,-1,-1,-1,-1,-1,-1,-1,-1,-1,-1,-1,-1,-1,-1,-1,-1,-1,-1,-1,-1,-1,-1,-1],"loss_changes":[3.1658347E2,3.381054E2,8.350673E1,6.369856E2,5.7048126E1,7.122625E1,2.4872409E2,3.471561E2,6.046414E2,4.8198822E1,1.9519798E2,1.8550696E2,7.618982E1,6.903781E1,3.361963E1,2.1636908E2,7.012333E2,1.12455215E2,1.3916333E2,2.4978271E1,6.158954E1,1.105392E2,4.6898758E1,2.5987024E1,7.182007E1,6.068503E1,3.077787E1,3.2523804E1,6.733232E1,5.7999977E1,1.9371677E1,1.6865045E2,6.0124878E1,2.903769E2,1.4256006E2,4.7627228E1,1.05181E2,1.7367603E2,1.8584529E2,1.4808868E1,8.724815E0,7.071228E1,6.432425E1,2.9658695E1,1.5993364E2,3.1399231E1,8.377409E0,4.1094418E1,3.8721973E1,5.2816315E1,4.3454277E1,2.6785297E2,2.3752585E2,7.63918E0,2.323024E1,1.5782394E1,1.4609558E1,7.035046E1,6.8592873E0,9.262657E0,2.8118738E1,1.8457685E1,8.661907E0,0E0,0E0,0E0,0E0,0E0,0E0,0E0,0E0,0E0,0E0,0E0,0E0,0E0,0E0,0E0,0E0,0E0,0E0,0E0,0E0,0E0,0E0,0E0,0E0,0E0,0E0,0E0,0E0,0E0,0E0,0E0,0E0,0E0,0E0,0E0,0E0,0E0,0E0,0E0,0E0,0E0,0E0,0E0,0E0,0E0,0E0,0E0,0E0,0E0,0E0,0E0,0E0,0E0,0E0,0E0,0E0,0E0,0E0,0E0,0E0,0E0,0E0,0E0,0E0],"parents":[2147483647,0,0,1,1,2,2,3,3,4,4,5,5,6,6,7,7,8,8,9,9,10,10,11,11,12,12,13,13,14,14,15,15,16,16,17,17,18,18,19,19,20,20,21,21,22,22,23,23,24,24,25,25,26,26,27,27,28,28,29,29,30,30,31,31,32,32,33,33,34,34,35,35,36,36,37,37,38,38,39,39,40,40,41,41,42,42,43,43,44,44,45,45,46,46,47,47,48,48,49,49,50,50,51,51,52,52,53,53,54,54,55,55,56,56,57,57,58,58,59,59,60,60,61,61,62,62],"right_children":[2,4,6,8,10,12,14,16,18,20,22,24,26,28,30,32,34,36,38,40,42,44,46,48,50,52,54,56,58,60,62,64,66,68,70,72,74,76,78,80,82,84,86,88,90,92,94,96,98,100,102,104,106,108,110,112,114,116,118,120,122,124,126,-1,-1,-1,-1,-1,-1,-1,-1,-1,-1,-1,-1,-1,-1,-1,-1,-1,-1,-1,-1,-1,-1,-1,-1,-1,-1,-1,-1,-1,-1,-1,-1,-1,-1,-1,-1,-1,-1,-1,-1,-1,-1,-1,-1,-1,-1,-1,-1,-1,-1,-1,-1,-1,-1,-1,-1,-1,-1,-1,-1,-1,-1,-1,-1],"split_conditions":[1.3993027E0,5E1,4.9E1,4.6E1,5.3E1,7E0,5.1E1,4.5E1,1.7E2,3E0,5.4E1,5E0,3.3737187E0,5E1,2.8731384E0,9.89E2,4E2,4.9E1,5.2E2,6.4E2,5.1E1,1E2,7.8E2,5.9E2,6E2,2.6E1,4E0,2.1E2,3.2E2,5.3E1,5.4E1,8.3E2,1.5E1,3.31E2,8.9E2,2E1,1.2E2,4.2E2,5.6E2,2E0,7E2,2.6E2,4.4448152E-1,1E1,1.3E2,1.41E2,1E0,4.6E2,6E2,2.7890384E-1,6.41E2,2.5E1,3.4E1,1.6314409E0,8E2,3E0,4.2E2,2.5E2,1E0,4.3E2,1E0,2.7E2,-1.097086E0,-5.49616E-3,-8.2189694E-2,2.777229E-1,1.098675E-3,-2.3088131E-2,2.569944E-1,-2.1684332E-1,-7.2775096E-2,5.193645E-2,-2.9411656E-1,1.1971759E-1,-3.2252014E-1,2.2676733E-1,5.438119E-1,-2.2590728E-1,1.7227136E-1,-1.4118397E-1,-2.2644104E-1,-4.20171E-3,4.2243585E-1,-1.0682248E-1,4.128705E-2,-1.6706671E-1,1.10507034E-1,7.686513E-1,-1.2596063E-1,9.092739E-1,3.1188205E-2,-3.672203E-2,-2.1924102E-1,2.248692E-2,2.1239004E-1,-3.6234394E-2,-2.09572E-1,2.0165564E-1,-4.9582966E-2,1.179075E-1,-1.3678216E-2,-2.3140745E-1,7.294665E-2,-2.769387E-3,-3.210698E-1,8.280222E-2,-1.2267754E-2,9.143737E-2,-9.732621E-2,7.9995535E-2,-1.8445311E-2,-4.4016233E-3,3.843837E-1,1.0823222E-1,2.0950952E-1,3.886734E-2,2.5534424E-1,-2.1352829E-1,-2.5122238E-2,-1.6490063E-1,-7.097637E-2,-3.870924E-2,1.9011454E-1,-3.5517872E-3,2.3299463E-1,2.1958113E-1,-1.8218625E-1],"split_indices":[30,5,5,5,5,5,5,5,6,28,5,5,32,5,1,6,6,5,6,6,5,6,6,6,6,5,28,6,6,5,5,6,5,6,6,6,6,6,6,28,6,6,1,6,6,6,13,6,6,26,6,5,5,31,6,28,6,6,17,6,14,6,25,0,0,0,0,0,0,0,0,0,0,0,0,0,0,0,0,0,0,0,0,0,0,0,0,0,0,0,0,0,0,0,0,0,0,0,0,0,0,0,0,0,0,0,0,0,0,0,0,0,0,0,0,0,0,0,0,0,0,0,0,0,0,0,0],"split_type":[0,0,0,0,0,0,0,0,0,0,0,0,0,0,0,0,0,0,0,0,0,0,0,0,0,0,0,0,0,0,0,0,0,0,0,0,0,0,0,0,0,0,0,0,0,0,0,0,0,0,0,0,0,0,0,0,0,0,0,0,0,0,0,0,0,0,0,0,0,0,0,0,0,0,0,0,0,0,0,0,0,0,0,0,0,0,0,0,0,0,0,0,0,0,0,0,0,0,0,0,0,0,0,0,0,0,0,0,0,0,0,0,0,0,0,0,0,0,0,0,0,0,0,0,0,0,0],"sum_hessian":[9.846667E4,6.995323E4,2.8513447E4,6.6260445E4,3.6927764E3,2.6185102E4,2.328345E3,6.3508023E4,2.7524255E3,3.1127646E3,5.800116E2,4.513361E3,2.1671742E4,1.5012936E3,8.2705145E2,5.9025816E4,4.4822065E3,5.900206E2,2.162405E3,8.19054E2,2.2937107E3,1.1925776E2,4.6075385E2,1.3337253E3,3.1796353E3,1.9130143E4,2.541598E3,8.2913635E2,6.721572E2,6.7252423E2,1.5452719E2,5.863056E4,3.952582E2,1.4425074E3,3.039699E3,3.293754E2,2.606452E2,1.1714264E3,9.9097864E2,7.763136E2,4.274045E1,1.209022E3,1.0846887E3,4.3373535E1,7.5884224E1,3.6472437E2,9.602946E1,1.1067876E3,2.2693782E2,3.010445E3,1.6919011E2,8.918987E3,1.0211156E4,1.5035052E2,2.3912473E3,1.2335832E2,7.05778E2,5.84116E2,8.804117E1,4.7373157E2,1.9879266E2,1.197862E2,3.4740986E1,5.592616E4,2.7043967E3,3.0310556E2,9.215267E1,9.2202386E2,5.204836E2,2.1742058E3,8.6549316E2,4.052417E1,2.8885123E2,1.9764821E2,6.299701E1,9.867915E2,1.8463483E2,1.191261E2,8.7185254E2,3.1884735E2,4.5746625E2,3.8890842E1,3.8496087E0,7.277202E2,4.8130176E2,1.00415533E3,8.053334E1,2.6293051E0,4.074423E1,4.3704044E1,3.2180183E1,1.3483398E2,2.2989038E2,6.6303764E1,2.9725695E1,9.666018E2,1.4018578E2,9.2183044E1,1.3475478E2,2.7051357E3,3.0530945E2,9.3650345E1,7.5539764E1,8.675339E3,2.4364896E2,3.719762E3,6.491394E3,2.1859976E1,1.2849055E2,2.1518438E3,2.3940352E2,1.0215682E1,1.1314264E2,1.7357343E2,5.322046E2,3.7280927E2,2.1130676E2,6.3883236E1,2.415793E1,3.3978058E2,1.33951E2,1.184608E2,8.033187E1,5.243068E1,6.735552E1,4.850003E0,2.9890984E1],"tree_param":{"num_deleted":"0","num_feature":"33","num_nodes":"127","size_leaf_vector":"1"}},{"base_weights":[-4.425275E-3,-9.863055E-2,2.3547562E-2,-1.8839882E-4,-1.839115E-1,3.0711122E-2,-2.262671E-1,-3.0035916E-1,7.418264E-2,-2.8171001E-2,-2.1276209E-1,1.7444033E-2,2.5319472E-1,-5.6881386E-1,-1.4208503E-1,-3.381767E-1,-1.6618302E-1,4.0705908E-2,2.783011E-1,-2.9756504E-1,9.365462E-2,-3.3466104E-1,-1.631459E-1,4.787821E-2,-6.0990546E-2,4.4167554E-1,7.588074E-3,1.03634305E-1,-7.0388865E-1,-2.2439985E-1,1.2700829E-1,-2.9205725E-1,-6.1539614E-1,8.016971E-1,-3.8267663E-1,-1.3473403E-1,7.757671E-2,3.6690596E-1,3.8265195E-2,-5.791496E-2,-9.718223E-1,1.5523975E-1,-5.3619593E-1,-2.5957066E-1,-7.805948E-1,1.7106195E-1,-1.9572972E-1,1.4668308E-2,2.1062438E-1,-2.2378418E-1,2.3434414E-2,3.1162623E-1,5.3243953E-1,1.2515699E0,-4.7623318E-2,-6.929442E-1,5.035159E-1,-8.177514E-1,5.6643263E-2,-2.97406E-1,8.119514E-2,2.4770896E-1,-1.1377738E-1,-6.6970244E-2,-1.2526608E-1,-2.0762168E-1,-2.0764522E-2,5.1240224E-1,1.3125122E-1,-2.4619304E-1,-7.848549E-2,-2.7537785E-2,-1.8889812E-1,9.947788E-2,3.2093714E-3,-1.2022531E-1,1.1864034E-1,2.42932E-2,-2.3702237E-1,-5.648563E-2,5.832095E-1,-3.0699053E-1,-4.7415297E-2,-2.5226487E-2,9.9531755E-2,-3.523128E-1,1.1200285E-1,-1.1303968E-1,-1.1746415E-2,-2.471533E-1,-1.1377881E-1,-5.9507046E-2,1.6387711E-1,-5.044875E-2,-1.3826902E-1,7.7485065E-3,-1.8536821E-1,3.965826E-2,1.4209963E-1,-5.1613383E-2,-2.0889534E-1,7.4950166E-2,-1.9120168E-2,1.1296241E-1,-1.4094594E-1,4.4819003E-1,1.1864838E-1,8.461611E-3,5.046613E-1,-2.2639464E-1,2.0413298E-2,-2.3574235E-1,1.489018E-1,5.026215E-1,6.924198E-2,-1.8201943E-1,-2.814016E-1,1.448479E-1,-1.8083227E-1,-2.355482E-2,-1.2596324E-1,-8.8393E-3,1.54237E-1,3.9967082E-2,4.3920022E-1,-3.476589E-1,9.548438E-3],"categories":[],"categories_nodes":[],"categories_segments":[],"categories_sizes":[],"default_left":[0,0,0,0,0,0,0,0,0,0,0,0,0,0,0,0,0,0,0,0,0,0,0,0,0,0,0,0,0,0,0,0,0,0,0,0,0,0,0,0,0,0,0,0,0,0,0,0,0,0,0,0,0,0,0,0,0,0,0,0,0,0,0,0,0,0,0,0,0,0,0,0,0,0,0,0,0,0,0,0,0,0,0,0,0,0,0,0,0,0,0,0,0,0,0,0,0,0,0,0,0,0,0,0,0,0,0,0,0,0,0,0,0,0,0,0,0,0,0,0,0,0,0,0,0,0,0],"id":7,"left_children":[1,3,5,7,9,11,13,15,17,19,21,23,25,27,29,31,33,35,37,39,41,43,45,47,49,51,53,55,57,59,61,63,65,67,69,71,73,75,77,79,81,83,85,87,89,91,93,95,97,99,101,103,105,107,109,111,113,115,117,119,121,123,125,-1,-1,-1,-1,-1,-1,-1,-1,-1,-1,-1,-1,-1,-1,-1,-1,-1,-1,-1,-1,-1,-1,-1,-1,-1,-1,-1,-1,-1,-1,-1,-1,-1,-1,-1,-1,-1,-1,-1,-1,-1,-1,-1,-1,-1,-1,-1,-1,-1,-1,-1,-1,-1,-1,-1,-1,-1,-1,-1,-1,-1,-1,-1,-1],"loss_changes":[2.5776294E2,1.8801166E2,1.349772E2,2.3211098E2,5.391095E1,2.164128E2,6.0549248E1,1.0419815E1,5.6928604E1,6.161733E1,6.1177155E1,1.6517592E2,1.909997E2,3.7717346E1,3.744302E1,2.0399857E1,9.58394E1,4.6325108E1,2.4953026E1,9.4410446E1,5.0238434E1,9.783389E1,7.841019E1,2.6943402E2,2.6586118E2,2.7389893E1,1.2317494E2,2.2708986E1,2.9943619E1,2.8889534E1,1.1545894E1,1.1842789E1,9.529327E0,2.686681E1,1.9575142E1,2.6376179E1,1.0051828E2,1.8955223E1,1.1301196E1,1.13215675E2,6.2578583E0,4.9823742E1,6.7417175E1,6.477115E1,7.0028076E0,8.880137E1,4.786374E1,2.9230447E2,1.7423477E2,1.6138647E2,2.5141241E2,4.8976425E1,1.8026682E2,4.0103714E1,1.4049445E2,3.027565E0,1.4734254E1,7.0526886E0,1.3188521E1,2.7968826E1,1.200514E1,3.660681E1,2.0277159E1,0E0,0E0,0E0,0E0,0E0,0E0,0E0,0E0,0E0,0E0,0E0,0E0,0E0,0E0,0E0,0E0,0E0,0E0,0E0,0E0,0E0,0E0,0E0,0E0,0E0,0E0,0E0,0E0,0E0,0E0,0E0,0E0,0E0,0E0,0E0,0E0,0E0,0E0,0E0,0E0,0E0,0E0,0E0,0E0,0E0,0E0,0E0,0E0,0E0,0E0,0E0,0E0,0E0,0E0,0E0,0E0,0E0,0E0,0E0,0E0,0E0,0E0,0E0,0E0],"parents":[2147483647,0,0,1,1,2,2,3,3,4,4,5,5,6,6,7,7,8,8,9,9,10,10,11,11,12,12,13,13,14,14,15,15,16,16,17,17,18,18,19,19,20,20,21,21,22,22,23,23,24,24,25,25,26,26,27,27,28,28,29,29,30,30,31,31,32,32,33,33,34,34,35,35,36,36,37,37,38,38,39,39,40,40,41,41,42,42,43,43,44,44,45,45,46,46,47,47,48,48,49,49,50,50,51,51,52,52,53,53,54,54,55,55,56,56,57,57,58,58,59,59,60,60,61,61,62,62],"right_children":[2,4,6,8,10,12,14,16,18,20,22,24,26,28,30,32,34,36,38,40,42,44,46,48,50,52,54,56,58,60,62,64,66,68,70,72,74,76,78,80,82,84,86,88,90,92,94,96,98,100,102,104,106,108,110,112,114,116,118,120,122,124,126,-1,-1,-1,-1,-1,-1,-1,-1,-1,-1,-1,-1,-1,-1,-1,-1,-1,-1,-1,-1,-1,-1,-1,-1,-1,-1,-1,-1,-1,-1,-1,-1,-1,-1,-1,-1,-1,-1,-1,-1,-1,-1,-1,-1,-1,-1,-1,-1,-1,-1,-1,-1,-1,-1,-1,-1,-1,-1,-1,-1,-1,-1,-1,-1],"split_conditions":[4E0,2E0,5.1E1,1E0,6E0,4.9E1,5.2E1,6.1E2,3.3737187E0,5E0,2E1,3.4E1,5E1,7E1,1.5458915E-1,5E2,6.4E2,1.1E2,3.5E1,4E0,6E2,1.8E1,2.3E1,3E1,3.9E1,4.2E2,3E1,2E1,2.8731384E0,6.4E2,5.1E2,3.3E1,4.4E1,1.1E1,7E2,1E2,2.1E2,3E0,9.3E2,6.2E2,1.3993027E0,3.9E2,6.6E2,5.1E2,1.2227241E0,2.2E1,5E1,2.8E1,5.9E2,3.8E1,4.1E1,4E2,4.5E2,2E1,1.3E2,2E0,4E1,2.3E2,3.1E2,1.41E2,1.20058745E-1,4.7E2,5.7E2,-6.6970244E-2,-1.2526608E-1,-2.0762168E-1,-2.0764522E-2,5.1240224E-1,1.3125122E-1,-2.4619304E-1,-7.848549E-2,-2.7537785E-2,-1.8889812E-1,9.947788E-2,3.2093714E-3,-1.2022531E-1,1.1864034E-1,2.42932E-2,-2.3702237E-1,-5.648563E-2,5.832095E-1,-3.0699053E-1,-4.7415297E-2,-2.5226487E-2,9.9531755E-2,-3.523128E-1,1.1200285E-1,-1.1303968E-1,-1.1746415E-2,-2.471533E-1,-1.1377881E-1,-5.9507046E-2,1.6387711E-1,-5.044875E-2,-1.3826902E-1,7.7485065E-3,-1.8536821E-1,3.965826E-2,1.4209963E-1,-5.1613383E-2,-2.0889534E-1,7.4950166E-2,-1.9120168E-2,1.1296241E-1,-1.4094594E-1,4.4819003E-1,1.1864838E-1,8.461611E-3,5.046613E-1,-2.2639464E-1,2.0413298E-2,-2.3574235E-1,1.489018E-1,5.026215E-1,6.924198E-2,-1.8201943E-1,-2.814016E-1,1.448479E-1,-1.8083227E-1,-2.355482E-2,-1.2596324E-1,-8.8393E-3,1.54237E-1,3.9967082E-2,4.3920022E-1,-3.476589E-1,9.548438E-3],"split_indices":[28,28,5,28,5,5,5,6,32,5,5,5,5,6,20,6,6,6,5,5,6,5,5,5,5,6,6,6,1,6,6,5,5,5,6,6,6,5,6,6,30,6,6,6,31,5,5,5,6,5,5,6,6,6,6,3,6,6,6,6,23,6,6,0,0,0,0,0,0,0,0,0,0,0,0,0,0,0,0,0,0,0,0,0,0,0,0,0,0,0,0,0,0,0,0,0,0,0,0,0,0,0,0,0,0,0,0,0,0,0,0,0,0,0,0,0,0,0,0,0,0,0,0,0,0,0,0],"split_type":[0,0,0,0,0,0,0,0,0,0,0,0,0,0,0,0,0,0,0,0,0,0,0,0,0,0,0,0,0,0,0,0,0,0,0,0,0,0,0,0,0,0,0,0,0,0,0,0,0,0,0,0,0,0,0,0,0,0,0,0,0,0,0,0,0,0,0,0,0,0,0,0,0,0,0,0,0,0,0,0,0,0,0,0,0,0,0,0,0,0,0,0,0,0,0,0,0,0,0,0,0,0,0,0,0,0,0,0,0,0,0,0,0,0,0,0,0,0,0,0,0,0,0,0,0,0,0],"sum_hessian":[9.781386E4,2.2394033E4,7.541983E4,1.0395371E4,1.1998661E4,7.3318266E4,2.1015605E3,2.0635576E3,8.331813E3,1.8756349E3,1.0123026E4,6.9193234E4,4.1250356E3,4.1344537E2,1.688115E3,1.6086414E3,4.5491617E2,7.1589067E3,1.172907E3,5.836226E2,1.2920122E3,2.9267441E3,7.1962827E3,4.9850598E4,1.9342633E4,2.3334932E3,1.7915424E3,6.919615E1,3.4424924E2,1.2928135E3,3.9530157E2,1.3809534E3,2.27688E2,8.266077E1,3.722554E2,1.2427856E3,5.916121E3,8.562934E2,3.1661356E2,4.3138287E2,1.5223975E2,1.1776211E3,1.1439114E2,2.5062937E3,4.2045038E2,6.389018E2,6.557381E3,4.140301E4,8.447587E3,6.6049307E3,1.2737703E4,9.6099066E2,1.3725026E3,7.521375E1,1.7163286E3,2.2881836E1,4.6314312E1,2.9935602E2,4.4893208E1,1.0435402E3,2.4927327E2,2.632908E2,1.3201076E2,8.936486E2,4.8730478E2,1.9942451E2,2.826349E1,2.2637218E1,6.002355E1,7.936143E1,2.9289395E2,1.144657E3,9.8128716E1,1.2321737E3,4.6839473E3,3.0249353E1,8.26044E2,3.0194638E2,1.4667185E1,4.0585855E2,2.552431E1,1.4293985E2,9.299899E0,5.0012207E2,6.77499E2,6.705245E1,4.7338696E1,1.6356589E3,8.7063495E2,3.7859805E2,4.185233E1,3.2216653E2,3.167353E2,5.941343E3,6.1603815E2,4.068616E4,7.1685065E2,6.508476E3,1.939111E3,5.9543315E3,6.5059924E2,3.540419E3,9.197284E3,8.87762E2,7.322869E1,1.6987253E2,1.20263E3,1.986003E1,5.535372E1,2.4053285E2,1.4757958E3,2.1539234E1,1.3426023E0,7.772161E0,3.8542152E1,1.1086212E2,1.8849391E2,2.7431782E1,1.7461426E1,3.7498343E2,6.6855676E2,1.9927032E2,5.000295E1,2.4165427E2,2.163655E1,1.5292158E1,1.16718605E2],"tree_param":{"num_deleted":"0","num_feature":"33","num_nodes":"127","size_leaf_vector":"1"}},{"base_weights":[-3.657687E-3,-1.6142195E-2,1.4386287E-1,7.4246384E-2,-3.3303678E-2,2.5302628E-1,1.01722434E-1,-1.8365027E-1,1.7699222E-1,-1.11100174E-1,2.4100062E-3,1.3375175E-1,5.149353E-1,5.7197183E-1,9.4353214E-2,-2.4543312E-1,1.4986715E-1,2.9047233E-1,-1.9285014E-1,-4.8558187E-2,-3.33211E-1,4.3868068E-1,-1.9155156E-2,3.2422912E-1,6.185501E-2,-5.8476947E-2,5.595354E-1,1.0125203E0,4.420793E-1,-6.113899E-1,9.8564684E-2,-1.9930933E-1,-7.295466E-1,5.789635E-1,-5.7551074E-1,2.0014852E-1,9.925968E-1,-8.24171E-1,9.772554E-2,-6.221687E-2,5.903515E-1,-4.1998733E-2,-4.1429815E-1,-1.9744094E-1,8.326641E-1,-6.993802E-2,9.38688E-2,2.1820514E-1,8.68384E-1,2.5146127E-1,-9.244465E-2,-2.9338205E-1,6.297349E-1,6.9917035E-1,3.8061386E-1,1.1486577E0,-1.6848499E-1,2.9703587E-1,9.809038E-1,-1.3696265E-1,-8.826652E-1,-4.1400947E-2,1.16230875E-1,-9.284162E-2,2.2812733E-2,-3.9390022E-1,-1.7368206E-1,3.592004E-2,4.290158E-1,1.7642853E-1,-2.2771773E-1,9.191644E-2,-5.9170824E-1,3.0252537E-1,-5.3128684E-1,-1.00322634E-1,-3.2227737E-1,2.8282437E-1,-1.0169313E-1,-6.9652586E-3,-1.9361587E-1,1.4688879E-1,3.3604634E-1,2.101921E-1,-1.270142E-1,-2.0035951E-1,-1.0498399E-1,7.760223E-2,-3.148616E-1,1.8674684E-1,3.6627683E-1,-1.2681088E-2,-1.2470957E-1,6.337261E-2,-5.751274E-2,-1.1833769E-2,1.8056484E-1,3.5959175E-1,-2.2859368E-2,-2.69852E-1,1.2523195E-1,-2.0827597E-1,7.0453004E-4,-4.0100846E-1,-4.105016E-2,-4.0886763E-2,3.2488844E-1,2.198828E-1,-1.0231266E-2,-6.748096E-2,1.5110151E-1,3.8273296E-1,1.1898243E-2,2.7119007E-2,2.2771756E-1,3.37695E-1,-8.871781E-2,-3.8474533E-1,7.368484E-2,1.0426973E-1,-3.1859642E-1,-1.653625E-1,1.8001487E-2,1.8409024E-1,3.155766E-2],"categories":[],"categories_nodes":[],"categories_segments":[],"categories_sizes":[],"default_left":[0,0,0,0,0,0,0,0,0,0,0,0,0,0,0,0,0,0,0,0,0,0,0,0,0,0,0,0,0,0,0,0,0,0,0,0,0,0,0,0,0,0,0,0,0,0,0,0,0,0,0,0,0,0,0,0,0,0,0,0,0,0,0,0,0,0,0,0,0,0,0,0,0,0,0,0,0,0,0,0,0,0,0,0,0,0,0,0,0,0,0,0,0,0,0,0,0,0,0,0,0,0,0,0,0,0,0,0,0,0,0,0,0,0,0,0,0,0,0,0,0,0,0,0,0],"id":8,"left_children":[1,3,5,7,9,11,13,15,17,19,21,23,25,27,29,31,33,35,37,39,41,43,45,47,49,51,53,55,57,59,61,63,65,67,69,71,73,75,77,79,81,83,85,87,89,91,93,95,97,99,101,103,105,107,109,111,-1,113,115,117,119,121,123,-1,-1,-1,-1,-1,-1,-1,-1,-1,-1,-1,-1,-1,-1,-1,-1,-1,-1,-1,-1,-1,-1,-1,-1,-1,-1,-1,-1,-1,-1,-1,-1,-1,-1,-1,-1,-1,-1,-1,-1,-1,-1,-1,-1,-1,-1,-1,-1,-1,-1,-1,-1,-1,-1,-1,-1,-1,-1,-1,-1,-1,-1],"loss_changes":[1.7879356E2,1.388422E2,3.4819366E1,3.784829E2,2.0900061E2,6.5814316E1,1.889019E1,8.389104E1,4.2872873E2,3.2875522E2,4.8506738E2,1.9843176E1,1.6900635E1,4.367708E0,1.6061337E1,7.6528946E1,1.9849612E2,4.9548853E2,4.4011874E2,1.6120616E2,1.2277069E2,6.087958E2,2.8199298E2,2.2727345E1,3.0865551E1,8.026179E0,1.5025467E1,4.5852337E0,4.9263287E0,4.0070696E0,1.3239689E1,9.516462E1,2.545401E1,1.5637029E2,5.1092926E1,1.5992832E3,4.0726196E1,9.225867E1,6.068313E2,4.112497E2,2.0084595E1,3.2138055E2,6.613312E1,3.615767E2,1.21631714E2,3.2427374E2,5.1058264E2,3.301943E1,2.0193016E1,9.0785484E1,3.320049E1,5.8347197E0,4.5431643E0,8.508759E0,2.0269165E1,2.3813477E0,0E0,5.0904083E0,2.8691835E0,5.947321E0,4.830347E0,3.1082764E1,2.6031982E1,0E0,0E0,0E0,0E0,0E0,0E0,0E0,0E0,0E0,0E0,0E0,0E0,0E0,0E0,0E0,0E0,0E0,0E0,0E0,0E0,0E0,0E0,0E0,0E0,0E0,0E0,0E0,0E0,0E0,0E0,0E0,0E0,0E0,0E0,0E0,0E0,0E0,0E0,0E0,0E0,0E0,0E0,0E0,0E0,0E0,0E0,0E0,0E0,0E0,0E0,0E0,0E0,0E0,0E0,0E0,0E0,0E0,0E0,0E0,0E0,0E0,0E0],"parents":[2147483647,0,0,1,1,2,2,3,3,4,4,5,5,6,6,7,7,8,8,9,9,10,10,11,11,12,12,13,13,14,14,15,15,16,16,17,17,18,18,19,19,20,20,21,21,22,22,23,23,24,24,25,25,26,26,27,27,28,28,29,29,30,30,31,31,32,32,33,33,34,34,35,35,36,36,37,37,38,38,39,39,40,40,41,41,42,42,43,43,44,44,45,45,46,46,47,47,48,48,49,49,50,50,51,51,52,52,53,53,54,54,55,55,57,57,58,58,59,59,60,60,61,61,62,62],"right_children":[2,4,6,8,10,12,14,16,18,20,22,24,26,28,30,32,34,36,38,40,42,44,46,48,50,52,54,56,58,60,62,64,66,68,70,72,74,76,78,80,82,84,86,88,90,92,94,96,98,100,102,104,106,108,110,112,-1,114,116,118,120,122,124,-1,-1,-1,-1,-1,-1,-1,-1,-1,-1,-1,-1,-1,-1,-1,-1,-1,-1,-1,-1,-1,-1,-1,-1,-1,-1,-1,-1,-1,-1,-1,-1,-1,-1,-1,-1,-1,-1,-1,-1,-1,-1,-1,-1,-1,-1,-1,-1,-1,-1,-1,-1,-1,-1,-1,-1,-1,-1,-1,-1,-1,-1],"split_conditions":[2.8731384E0,7E0,1.7E2,5E0,2.2E1,1.2E2,-1.4840832E-1,5.9E2,4.8E2,1.7E1,2.3E1,8E0,6E0,1E0,1E0,5.1E2,6.3E2,4.7E2,5.2E2,9.89E2,6E1,9E1,5.9E2,9E1,4E1,1.41E2,2.3E1,9.2E2,1E0,1.9E1,2.4E2,3.5E2,5.2E2,6.2E2,2E0,4.5E2,6E0,4.9E2,5.4E2,8.3E2,1E0,2.1E1,1.41E2,5E1,1.6E2,5.2E2,4.5E1,6E0,1E2,1.3E1,5E1,2E0,1.5708331E0,3.3784602E0,3E1,1.3699025E-1,-1.6848499E-1,1.00099064E-1,3.5838068E0,-5.740122E-1,7.522337E-1,4E0,2.5E2,-9.284162E-2,2.2812733E-2,-3.9390022E-1,-1.7368206E-1,3.592004E-2,4.290158E-1,1.7642853E-1,-2.2771773E-1,9.191644E-2,-5.9170824E-1,3.0252537E-1,-5.3128684E-1,-1.00322634E-1,-3.2227737E-1,2.8282437E-1,-1.0169313E-1,-6.9652586E-3,-1.9361587E-1,1.4688879E-1,3.3604634E-1,2.101921E-1,-1.270142E-1,-2.0035951E-1,-1.0498399E-1,7.760223E-2,-3.148616E-1,1.8674684E-1,3.6627683E-1,-1.2681088E-2,-1.2470957E-1,6.337261E-2,-5.751274E-2,-1.1833769E-2,1.8056484E-1,3.5959175E-1,-2.2859368E-2,-2.69852E-1,1.2523195E-1,-2.0827597E-1,7.0453004E-4,-4.0100846E-1,-4.105016E-2,-4.0886763E-2,3.2488844E-1,2.198828E-1,-1.0231266E-2,-6.748096E-2,1.5110151E-1,3.8273296E-1,1.1898243E-2,2.7119007E-2,2.2771756E-1,3.37695E-1,-8.871781E-2,-3.8474533E-1,7.368484E-2,1.0426973E-1,-3.1859642E-1,-1.653625E-1,1.8001487E-2,1.8409024E-1,3.155766E-2],"split_indices":[1,5,6,5,5,6,27,6,6,5,5,5,5,15,28,6,6,6,6,6,6,6,6,6,6,6,5,6,19,5,6,6,6,6,5,6,5,6,6,6,19,5,6,6,6,6,5,5,6,5,6,28,0,30,5,22,0,23,22,22,26,28,6,0,0,0,0,0,0,0,0,0,0,0,0,0,0,0,0,0,0,0,0,0,0,0,0,0,0,0,0,0,0,0,0,0,0,0,0,0,0,0,0,0,0,0,0,0,0,0,0,0,0,0,0,0,0,0,0,0,0,0,0,0,0],"split_type":[0,0,0,0,0,0,0,0,0,0,0,0,0,0,0,0,0,0,0,0,0,0,0,0,0,0,0,0,0,0,0,0,0,0,0,0,0,0,0,0,0,0,0,0,0,0,0,0,0,0,0,0,0,0,0,0,0,0,0,0,0,0,0,0,0,0,0,0,0,0,0,0,0,0,0,0,0,0,0,0,0,0,0,0,0,0,0,0,0,0,0,0,0,0,0,0,0,0,0,0,0,0,0,0,0,0,0,0,0,0,0,0,0,0,0,0,0,0,0,0,0,0,0,0,0],"sum_hessian":[9.707732E4,8.950362E4,7.573705E3,1.4281328E4,7.522229E4,2.107999E3,5.465706E3,4.0684783E3,1.021285E4,2.3666508E4,5.1555785E4,1.4494319E3,6.58567E2,8.3148705E1,5.3825576E3,3.4328245E3,6.356537E2,7.8151216E3,2.3977278E3,1.8467613E4,5.198894E3,2.4274897E3,4.9128293E4,3.96217E2,1.053215E3,4.7504326E1,6.1106274E2,1.7386139E1,6.5762566E1,3.1074205E1,5.3514834E3,3.1355022E3,2.9732245E2,3.9952E2,2.361337E2,6.9254873E3,8.896343E2,7.5516907E2,1.6425586E3,1.8081957E4,3.8565555E2,1.1326544E3,4.0662397E3,9.286308E2,1.4988589E3,3.389796E4,1.5230332E4,3.3277887E2,6.343816E1,4.7226157E2,5.8095337E2,3.5843636E1,1.1660687E1,3.4157846E2,2.6948425E2,1.6250986E1,1.1351529E0,5.3037056E1,1.2725511E1,1.1851779E1,1.9222425E1,5.9960364E2,4.75188E3,2.239428E3,8.9607416E2,5.9417812E1,2.3790463E2,2.6024033E2,1.3927963E2,3.187267E1,2.0426103E2,6.603427E3,3.2206055E2,8.852017E2,4.4325557E0,2.560554E2,4.991137E2,5.592492E2,1.0833094E3,1.6949504E4,1.1324551E3,3.256664E2,5.998912E1,3.8402722E2,7.486272E2,8.211708E2,3.2450688E3,6.0531256E2,3.2331827E2,9.7413635E2,5.2472253E2,3.1387463E4,2.5104993E3,1.0794164E4,4.436168E3,1.9962312E2,1.3315573E2,4.680479E1,1.6633371E1,5.8963497E1,4.1329807E2,7.81952E1,5.0275815E2,3.6930192E0,3.215062E1,4.594519E0,7.0661683E0,3.2653952E2,1.5038922E1,4.5374554E1,2.2410971E2,1.4444857E1,1.8061299E0,3.7472965E1,1.5564091E1,1.1535826E1,1.1896845E0,2.378334E0,9.473445E0,2.3261087E0,1.6896317E1,9.8743835E1,5.0085977E2,1.01981995E2,4.6498975E3],"tree_param":{"num_deleted":"0","num_feature":"33","num_nodes":"125","size_leaf_vector":"1"}},{"base_weights":[-2.8926607E-3,-6.86878E-2,1.6315548E-2,4.4663274E-4,-1.2987475E-1,-5.7235253E-3,6.116862E-2,-2.1381909E-1,5.1412977E-2,-1.0693408E-1,-2.3416887E-1,-8.597027E-2,1.0897089E-2,2.7285883E-2,1.6339317E-1,-2.3009619E-1,9.381861E-2,1.1791608E-1,-1.9487295E-2,-1.4758898E-1,1.0102249E0,-3.5552958E-1,-4.435678E-2,-6.1340086E-2,-3.9836273E-1,1.3571894E-1,-1.9046916E-2,4.024043E-2,-4.316308E-1,-1.6789469E-1,1.9697501E-1,-3.469341E-1,-2.0477913E-1,3.853737E-2,1.5862056E0,5.8286805E-2,4.7592926E-1,-6.391349E-1,1.4101288E-2,-1.3201214E-1,-4.1012198E-1,1.4395107E0,5.0388795E-1,-6.1959857E-1,-2.4169156E-1,1.2124786E-1,-2.8319475E-1,4.0473817E-3,-2.3203021E-1,-4.7135562E-1,1.5194257E0,1.7290874E-1,-1.6310781E-1,-2.4962121E-1,-5.8036405E-3,5.504208E-2,-9.382218E-2,-5.7315445E-1,3.017942E-1,-5.431525E-2,-4.9724606E-1,5.243322E-1,1.5902999E-1,-7.0943296E-2,-2.1794231E-1,3.7635542E-2,-7.0900396E-2,-3.0859893E-2,1.6196902E-1,1.7454022E-1,5.750171E-1,4.1826464E-2,-1.243745E-1,2.165445E-1,9.302687E-2,-9.6679494E-2,-3.0175403E-1,1.647972E-1,-5.697632E-3,-4.3701086E-2,8.8165574E-2,-1.8387866E-1,-5.038466E-2,1.6413566E-1,4.86445E-1,-2.1075971E-1,3.3175445E-1,-2.2537486E-1,-5.259639E-2,-6.147959E-3,-1.19451255E-1,-3.613252E-2,1.8295042E-1,-2.5760683E-1,-1.9275745E-2,-1.2316331E-2,1.4771314E-1,-1.21084675E-1,-1.08417645E-2,5.356237E-1,-1.4830156E-1,5.806958E-1,-2.3441637E-1,3.8032122E-2,2.2417282E-1,-3.8063806E-2,-2.5061905E-1,-4.177413E-2,-1.3840006E-1,5.4500714E-2,-8.317047E-3,7.1504517E-3,4.8469815E-2,-7.4715406E-2,3.0812213E-2,1.0107796E-2,-2.5830066E-1,-5.2194484E-2,1.4979474E-1,-1.1615501E-1,4.8363876E-2,-2.2471961E-1,-2.8589707E-2,2.5644198E-1,-7.7249175E-3,3.0049516E-2,9.8632574E-2],"categories":[],"categories_nodes":[],"categories_segments":[],"categories_sizes":[],"default_left":[0,0,0,0,0,0,0,0,0,0,0,0,0,0,0,0,0,0,0,0,0,0,0,0,0,0,0,0,0,0,0,0,0,0,0,0,0,0,0,0,0,0,0,0,0,0,0,0,0,0,0,0,0,0,0,0,0,0,0,0,0,0,0,0,0,0,0,0,0,0,0,0,0,0,0,0,0,0,0,0,0,0,0,0,0,0,0,0,0,0,0,0,0,0,0,0,0,0,0,0,0,0,0,0,0,0,0,0,0,0,0,0,0,0,0,0,0,0,0,0,0,0,0,0,0,0,0],"id":9,"left_children":[1,3,5,7,9,11,13,15,17,19,21,23,25,27,29,31,33,35,37,39,41,43,45,47,49,51,53,55,57,59,61,63,65,67,69,71,73,75,77,79,81,83,85,87,89,91,93,95,97,99,101,103,105,107,109,111,113,115,117,119,121,123,125,-1,-1,-1,-1,-1,-1,-1,-1,-1,-1,-1,-1,-1,-1,-1,-1,-1,-1,-1,-1,-1,-1,-1,-1,-1,-1,-1,-1,-1,-1,-1,-1,-1,-1,-1,-1,-1,-1,-1,-1,-1,-1,-1,-1,-1,-1,-1,-1,-1,-1,-1,-1,-1,-1,-1,-1,-1,-1,-1,-1,-1,-1,-1,-1],"loss_changes":[1.2142475E2,9.1839775E1,7.351444E1,1.11337654E2,2.7531342E1,6.6510574E1,8.486248E1,9.831825E0,3.8837173E1,4.2901602E2,4.780127E1,6.581008E1,1.5441063E2,1.0942889E2,6.789055E1,5.433693E0,8.119587E0,9.070326E1,8.299535E1,3.720868E1,7.137244E1,3.7909348E1,3.2100388E1,8.853177E1,8.8224396E1,8.885704E1,1.01741104E2,3.552389E1,5.2625175E1,2.0992907E1,6.8713394E1,1.3662216E1,1.5993843E1,6.906881E0,5.2389145E-2,1.3987946E2,2.4514694E1,2.3501404E1,6.701939E1,5.0086716E1,2.4939705E1,2.8175262E1,1.12415955E2,2.2137543E1,3.0670006E1,5.669093E1,4.1809547E1,1.26356155E2,7.383184E1,3.215677E1,2.3689316E1,1.882677E2,2.1453182E1,4.222541E1,1.2949373E2,5.3585247E1,5.4331924E1,7.40829E1,7.8298683E0,3.0118816E1,1.4500774E1,1.04525406E2,4.9573822E1,0E0,0E0,0E0,0E0,0E0,0E0,0E0,0E0,0E0,0E0,0E0,0E0,0E0,0E0,0E0,0E0,0E0,0E0,0E0,0E0,0E0,0E0,0E0,0E0,0E0,0E0,0E0,0E0,0E0,0E0,0E0,0E0,0E0,0E0,0E0,0E0,0E0,0E0,0E0,0E0,0E0,0E0,0E0,0E0,0E0,0E0,0E0,0E0,0E0,0E0,0E0,0E0,0E0,0E0,0E0,0E0,0E0,0E0,0E0,0E0,0E0,0E0,0E0,0E0],"parents":[2147483647,0,0,1,1,2,2,3,3,4,4,5,5,6,6,7,7,8,8,9,9,10,10,11,11,12,12,13,13,14,14,15,15,16,16,17,17,18,18,19,19,20,20,21,21,22,22,23,23,24,24,25,25,26,26,27,27,28,28,29,29,30,30,31,31,32,32,33,33,34,34,35,35,36,36,37,37,38,38,39,39,40,40,41,41,42,42,43,43,44,44,45,45,46,46,47,47,48,48,49,49,50,50,51,51,52,52,53,53,54,54,55,55,56,56,57,57,58,58,59,59,60,60,61,61,62,62],"right_children":[2,4,6,8,10,12,14,16,18,20,22,24,26,28,30,32,34,36,38,40,42,44,46,48,50,52,54,56,58,60,62,64,66,68,70,72,74,76,78,80,82,84,86,88,90,92,94,96,98,100,102,104,106,108,110,112,114,116,118,120,122,124,126,-1,-1,-1,-1,-1,-1,-1,-1,-1,-1,-1,-1,-1,-1,-1,-1,-1,-1,-1,-1,-1,-1,-1,-1,-1,-1,-1,-1,-1,-1,-1,-1,-1,-1,-1,-1,-1,-1,-1,-1,-1,-1,-1,-1,-1,-1,-1,-1,-1,-1,-1,-1,-1,-1,-1,-1,-1,-1,-1,-1,-1,-1,-1,-1],"split_conditions":[4E0,2E0,1.3993027E0,1E0,6.4E2,1.1E2,3.9E1,3.7252061E0,2.4E1,6.2E2,3.5E1,1E2,2.1E2,3.7E1,7E1,1E1,1.8234025E0,2.2E1,2.6E1,5E1,2.4E1,7.2E2,8.3E2,3.3E1,5.3E1,4.7E1,2.5E2,3.4E1,5.764673E-1,5E1,1.4E2,4.9E2,1.1E1,6E2,-3.9265805E-1,1.7E1,2.3E1,2.5E1,2.7E1,4.6E1,5.2E1,7E0,3.8E1,2.9E1,1.8E1,7.8E2,8.8E2,3E1,4.2E1,3E0,5.4E1,4.5E1,2E2,2.4E2,3E2,2.6E1,5E2,1.9E2,2.2E2,4.2E1,-1.793365E-1,4.6E1,7E2,-7.0943296E-2,-2.1794231E-1,3.7635542E-2,-7.0900396E-2,-3.0859893E-2,1.6196902E-1,1.7454022E-1,5.750171E-1,4.1826464E-2,-1.243745E-1,2.165445E-1,9.302687E-2,-9.6679494E-2,-3.0175403E-1,1.647972E-1,-5.697632E-3,-4.3701086E-2,8.8165574E-2,-1.8387866E-1,-5.038466E-2,1.6413566E-1,4.86445E-1,-2.1075971E-1,3.3175445E-1,-2.2537486E-1,-5.259639E-2,-6.147959E-3,-1.19451255E-1,-3.613252E-2,1.8295042E-1,-2.5760683E-1,-1.9275745E-2,-1.2316331E-2,1.4771314E-1,-1.21084675E-1,-1.08417645E-2,5.356237E-1,-1.4830156E-1,5.806958E-1,-2.3441637E-1,3.8032122E-2,2.2417282E-1,-3.8063806E-2,-2.5061905E-1,-4.177413E-2,-1.3840006E-1,5.4500714E-2,-8.317047E-3,7.1504517E-3,4.8469815E-2,-7.4715406E-2,3.0812213E-2,1.0107796E-2,-2.5830066E-1,-5.2194484E-2,1.4979474E-1,-1.1615501E-1,4.8363876E-2,-2.2471961E-1,-2.8589707E-2,2.5644198E-1,-7.7249175E-3,3.0049516E-2,9.8632574E-2],"split_indices":[28,28,30,28,6,6,5,27,5,6,5,6,6,5,6,5,25,5,5,5,5,6,6,5,5,5,6,5,0,6,6,6,5,6,20,5,5,5,5,5,5,5,5,5,5,6,6,5,5,5,5,5,6,6,6,5,6,6,6,5,23,5,6,0,0,0,0,0,0,0,0,0,0,0,0,0,0,0,0,0,0,0,0,0,0,0,0,0,0,0,0,0,0,0,0,0,0,0,0,0,0,0,0,0,0,0,0,0,0,0,0,0,0,0,0,0,0,0,0,0,0,0,0,0,0,0,0],"split_type":[0,0,0,0,0,0,0,0,0,0,0,0,0,0,0,0,0,0,0,0,0,0,0,0,0,0,0,0,0,0,0,0,0,0,0,0,0,0,0,0,0,0,0,0,0,0,0,0,0,0,0,0,0,0,0,0,0,0,0,0,0,0,0,0,0,0,0,0,0,0,0,0,0,0,0,0,0,0,0,0,0,0,0,0,0,0,0,0,0,0,0,0,0,0,0,0,0,0,0,0,0,0,0,0,0,0,0,0,0,0,0,0,0,0,0,0,0,0,0,0,0,0,0,0,0,0,0],"sum_hessian":[9.60767E4,2.1709875E4,7.436683E4,1.0193431E4,1.1516444E4,4.986564E4,2.4501186E4,1.9581306E3,8.2353E3,9.441667E3,2.0747769E3,8.555289E3,4.131035E4,1.8402777E4,6.098407E3,1.8599717E3,9.8158966E1,4.2490806E3,3.9862195E3,9.110975E3,3.3069257E2,1.2650592E3,8.0971765E2,7.931163E3,6.241259E2,7.992018E3,3.3318332E4,1.7898443E4,5.043346E2,5.6091656E2,5.5374907E3,3.2898877E2,1.5309829E3,9.5642E1,2.516964E0,3.643411E3,6.056695E2,2.040394E2,3.7821802E3,8.602091E3,5.0888403E2,1.7796565E2,1.5272691E2,3.7973914E2,8.8532007E2,4.7845828E2,3.312594E2,5.735139E3,2.196024E3,6.019686E2,2.215729E1,7.1078486E3,8.841693E2,1.80876E3,3.1509572E4,1.6119323E4,1.7791207E3,4.2294125E2,8.139335E1,4.1794858E2,1.4296797E2,5.7386414E2,4.963627E3,2.5608438E2,7.2904396E1,1.3327492E2,1.397708E3,7.522135E1,2.0420649E1,1.3066076E0,1.2103565E0,3.110429E3,5.32982E2,2.4260849E2,3.63061E2,1.1046615E2,9.357326E1,2.1933034E2,3.5628499E3,8.335438E3,2.6665207E2,2.7611865E2,2.3276537E2,3.0821918E1,1.4714372E2,5.078297E1,1.0194394E2,2.924019E2,8.733725E1,3.672741E2,5.1804596E2,3.2061362E2,1.5784467E2,9.048791E1,2.4077148E2,5.25107E3,4.8406946E2,1.1700715E3,1.0259524E3,5.295551E0,5.966731E2,1.8897383E1,3.2599063E0,6.580474E3,5.273745E2,8.400872E2,4.4082077E1,1.1900151E3,6.1874493E2,3.2977554E3,2.8211818E4,1.246794E4,3.6513823E3,9.9385535E2,7.852653E2,1.3635582E2,2.8658542E2,2.391289E1,5.748046E1,1.6394719E2,2.5400137E2,8.736827E1,5.5599697E1,3.5814584E2,2.157183E2,3.686721E3,1.2769058E3],"tree_param":{"num_deleted":"0","num_feature":"33","num_nodes":"127","size_leaf_vector":"1"}},{"base_weights":[-2.441875E-3,-1.0120074E-2,1.0354896E-1,-5.209136E-3,-1.9120243E-1,1.9846274E-1,6.506747E-2,-1.7331198E-2,1.7000744E-1,-5.646673E-1,-1.0593339E-1,1.3345693E-1,3.649071E-1,2.0082164E-1,4.6369746E-2,-5.4586018E-3,-1.8594286E-1,-2.1100469E-1,3.3716667E-1,1.6766791E-1,-7.23716E-1,-1.7311676E-1,1.688335E-1,-4.0444706E-2,1.996984E-1,4.800242E-1,2.3788631E-1,1.6557828E-1,7.776599E-1,3.285741E-2,2.7776012E-1,-1.3160501E-2,2.162901E-1,2.1325639E-1,-3.9436147E-1,-6.4100885E-1,-7.157778E-2,9.796378E-1,2.4416502E-1,-6.209838E-1,5.513E-1,-5.100092E-1,-8.5629886E-1,8.0944754E-2,-3.1495732E-1,1.3662198E-1,1.1357238E0,-6.6244364E-2,1.0068235E0,4.0831986E-1,1.3598785E-1,-6.9376814E-1,4.9221107E-1,3.1560433E-1,-2.4955565E-2,-6.361239E-1,1.876756E-1,3.7672174E-1,1.1366509E0,4.4673763E-2,-1.5333413E-1,-5.5150753E-3,3.9967942E-1,-1.273135E-3,-9.07142E-2,4.4475663E-1,3.9307993E-2,-2.6599409E-2,2.1979244E-1,-2.7618358E-1,-9.298568E-2,-1.0102012E-1,-2.9603425E-1,-5.953783E-2,8.4314674E-2,3.3622795E-1,3.8344994E-2,3.2386385E-2,1.203423E-1,-2.2725673E-1,2.37742E-2,4.656158E-1,8.645387E-2,-1.9301322E-1,2.7836618E-1,-2.8413355E-1,-1.273574E-1,-9.7836114E-2,1.6903895E-1,-1.8250461E-1,-7.2987035E-2,1.9131178E-2,1.1534141E-1,-1.0222197E-1,5.3606975E-1,-3.600778E-2,1.03744544E-1,3.7713358E-1,-2.018679E-2,-2.6432613E-1,1.2893112E-1,9.874783E-2,4.561426E-3,-2.7598453E-1,-3.8319055E-2,9.632498E-3,1.5785961E-1,7.009137E-4,1.3310765E-1,-1.873023E-1,6.881689E-2,-2.6871753E-1,1.6117848E-1,6.1168775E-2,-2.664746E-1,2.0012487E-1,-1.4977352E-1,-1.8505263E-1,3.9669272E-1,1.4611847E-2,-1.6287468E-1,-2.5778404E-1,-2.0851132E-2,-1.1189888E-1,9.64184E-2,1.8673307E-1,4.3673605E-2],"categories":[],"categories_nodes":[],"categories_segments":[],"categories_sizes":[],"default_left":[0,0,0,0,0,0,0,0,0,0,0,0,0,0,0,0,0,0,0,0,0,0,0,0,0,0,0,0,0,0,0,0,0,0,0,0,0,0,0,0,0,0,0,0,0,0,0,0,0,0,0,0,0,0,0,0,0,0,0,0,0,0,0,0,0,0,0,0,0,0,0,0,0,0,0,0,0,0,0,0,0,0,0,0,0,0,0,0,0,0,0,0,0,0,0,0,0,0,0,0,0,0,0,0,0,0,0,0,0,0,0,0,0,0,0,0,0,0,0,0,0,0,0,0,0,0,0],"id":10,"left_children":[1,3,5,7,9,11,13,15,17,19,21,23,25,27,29,31,33,35,37,39,41,43,45,47,49,51,53,55,57,59,61,63,65,67,69,71,73,75,77,79,81,83,85,87,89,91,93,95,97,99,101,103,105,107,109,111,113,115,117,119,121,123,125,-1,-1,-1,-1,-1,-1,-1,-1,-1,-1,-1,-1,-1,-1,-1,-1,-1,-1,-1,-1,-1,-1,-1,-1,-1,-1,-1,-1,-1,-1,-1,-1,-1,-1,-1,-1,-1,-1,-1,-1,-1,-1,-1,-1,-1,-1,-1,-1,-1,-1,-1,-1,-1,-1,-1,-1,-1,-1,-1,-1,-1,-1,-1,-1],"loss_changes":[7.7811325E1,7.928208E1,2.357631E1,1.843667E2,7.4902504E1,2.0104843E1,1.1658888E1,1.6252011E2,3.5779614E2,5.1059494E1,3.542862E1,1.5456579E1,7.526993E0,1.1178417E1,1.262768E1,1.2953859E2,4.444151E2,1.0267749E2,2.330473E2,2.4196507E1,9.748764E0,5.557109E1,1.1594891E1,1.00842E1,1.2854637E1,4.248848E0,5.123411E0,9.427717E0,4.1423435E0,8.410845E0,7.6991444E0,1.890335E2,2.7467444E2,2.8742285E2,1.555857E2,4.3792404E1,5.799508E1,5.916577E1,7.291008E1,2.571845E0,1.3659042E1,2.7465057E1,8.238968E0,1.0880779E2,2.0654648E1,6.5884275E0,1.2171679E1,8.081145E0,2.4976187E0,6.649811E0,1.7390825E1,2.9497707E-1,4.2197876E0,7.7572193E0,8.996797E0,4.8438687E0,9.118427E0,4.528904E0,6.108444E0,8.538803E0,1.3443756E1,8.294184E0,8.729441E0,0E0,0E0,0E0,0E0,0E0,0E0,0E0,0E0,0E0,0E0,0E0,0E0,0E0,0E0,0E0,0E0,0E0,0E0,0E0,0E0,0E0,0E0,0E0,0E0,0E0,0E0,0E0,0E0,0E0,0E0,0E0,0E0,0E0,0E0,0E0,0E0,0E0,0E0,0E0,0E0,0E0,0E0,0E0,0E0,0E0,0E0,0E0,0E0,0E0,0E0,0E0,0E0,0E0,0E0,0E0,0E0,0E0,0E0,0E0,0E0,0E0,0E0,0E0,0E0],"parents":[2147483647,0,0,1,1,2,2,3,3,4,4,5,5,6,6,7,7,8,8,9,9,10,10,11,11,12,12,13,13,14,14,15,15,16,16,17,17,18,18,19,19,20,20,21,21,22,22,23,23,24,24,25,25,26,26,27,27,28,28,29,29,30,30,31,31,32,32,33,33,34,34,35,35,36,36,37,37,38,38,39,39,40,40,41,41,42,42,43,43,44,44,45,45,46,46,47,47,48,48,49,49,50,50,51,51,52,52,53,53,54,54,55,55,56,56,57,57,58,58,59,59,60,60,61,61,62,62],"right_children":[2,4,6,8,10,12,14,16,18,20,22,24,26,28,30,32,34,36,38,40,42,44,46,48,50,52,54,56,58,60,62,64,66,68,70,72,74,76,78,80,82,84,86,88,90,92,94,96,98,100,102,104,106,108,110,112,114,116,118,120,122,124,126,-1,-1,-1,-1,-1,-1,-1,-1,-1,-1,-1,-1,-1,-1,-1,-1,-1,-1,-1,-1,-1,-1,-1,-1,-1,-1,-1,-1,-1,-1,-1,-1,-1,-1,-1,-1,-1,-1,-1,-1,-1,-1,-1,-1,-1,-1,-1,-1,-1,-1,-1,-1,-1,-1,-1,-1,-1,-1,-1,-1,-1,-1,-1,-1],"split_conditions":[7.8580743E-1,5.1E1,1.8E2,4.6E1,5.2E1,1.3E2,5.5466127E-2,4.5E1,1.7E2,7E1,6.4E2,1E0,1E0,4.9726105E0,8.325512E0,4.4E1,4E2,4.9E1,4.7E1,2E1,2.3E2,1.4E2,1.8234025E0,1.0692161E1,2E1,1E0,2.1771584E0,2E0,5.2E2,3.3784602E0,2.3558586E0,4.1E1,6E1,3.31E2,5.5E2,8E1,1.3993027E0,2.7E2,4.2E2,1.2227241E0,3E1,2.2E2,4.9E2,1E2,2.3E2,1.20058745E-1,-2.4257608E-1,1.054853E0,4.4034576E-1,-2.941605E0,1.1E1,1E0,6E0,1.9E1,1E0,1.1684812E0,9.83E2,3.7E1,-1.4813608E0,5.3E1,6E0,2.4E1,1.3291054E0,-1.273135E-3,-9.07142E-2,4.4475663E-1,3.9307993E-2,-2.6599409E-2,2.1979244E-1,-2.7618358E-1,-9.298568E-2,-1.0102012E-1,-2.9603425E-1,-5.953783E-2,8.4314674E-2,3.3622795E-1,3.8344994E-2,3.2386385E-2,1.203423E-1,-2.2725673E-1,2.37742E-2,4.656158E-1,8.645387E-2,-1.9301322E-1,2.7836618E-1,-2.8413355E-1,-1.273574E-1,-9.7836114E-2,1.6903895E-1,-1.8250461E-1,-7.2987035E-2,1.9131178E-2,1.1534141E-1,-1.0222197E-1,5.3606975E-1,-3.600778E-2,1.03744544E-1,3.7713358E-1,-2.018679E-2,-2.6432613E-1,1.2893112E-1,9.874783E-2,4.561426E-3,-2.7598453E-1,-3.8319055E-2,9.632498E-3,1.5785961E-1,7.009137E-4,1.3310765E-1,-1.873023E-1,6.881689E-2,-2.6871753E-1,1.6117848E-1,6.1168775E-2,-2.664746E-1,2.0012487E-1,-1.4977352E-1,-1.8505263E-1,3.9669272E-1,1.4611847E-2,-1.6287468E-1,-2.5778404E-1,-2.0851132E-2,-1.1189888E-1,9.64184E-2,1.8673307E-1,4.3673605E-2],"split_indices":[0,5,6,5,5,6,27,5,6,6,6,10,9,0,26,5,6,5,5,6,6,6,25,26,6,7,21,5,6,30,0,5,6,6,6,6,30,6,6,31,6,6,6,6,6,23,0,25,21,25,5,15,5,5,14,20,6,5,25,5,5,5,21,0,0,0,0,0,0,0,0,0,0,0,0,0,0,0,0,0,0,0,0,0,0,0,0,0,0,0,0,0,0,0,0,0,0,0,0,0,0,0,0,0,0,0,0,0,0,0,0,0,0,0,0,0,0,0,0,0,0,0,0,0,0,0,0],"split_type":[0,0,0,0,0,0,0,0,0,0,0,0,0,0,0,0,0,0,0,0,0,0,0,0,0,0,0,0,0,0,0,0,0,0,0,0,0,0,0,0,0,0,0,0,0,0,0,0,0,0,0,0,0,0,0,0,0,0,0,0,0,0,0,0,0,0,0,0,0,0,0,0,0,0,0,0,0,0,0,0,0,0,0,0,0,0,0,0,0,0,0,0,0,0,0,0,0,0,0,0,0,0,0,0,0,0,0,0,0,0,0,0,0,0,0,0,0,0,0,0,0,0,0,0,0,0,0],"sum_hessian":[9.5610305E4,8.91528E4,6.457512E3,8.679982E4,2.3529753E3,1.8616454E3,4.5958667E3,8.118413E4,5.615686E3,4.3632385E2,1.9166515E3,1.3400736E3,5.2157184E2,5.551899E2,4.040677E3,7.584466E4,5.3394814E3,1.7123656E3,3.9033203E3,7.784314E1,3.584807E2,1.540382E3,3.762695E2,3.6975558E2,9.70318E2,2.7214847E2,2.4942336E2,5.244353E2,3.0754623E1,3.8188145E3,2.2186256E2,7.329971E4,2.5449453E3,1.8314841E3,3.5079976E3,4.1839703E2,1.2939686E3,4.9237518E2,3.410945E3,2.5271847E1,5.2571297E1,1.3910608E2,2.1937463E2,5.520293E2,9.8835266E2,3.652429E2,1.1026598E1,3.6177982E2,7.9757695E0,2.2573512E2,7.445828E2,2.2218478E0,2.699266E2,1.9234836E2,5.707499E1,1.3321914E1,5.1111337E2,1.5496639E1,1.5257985E1,3.591637E3,2.2717754E2,6.704369E1,1.5481888E2,7.110844E4,2.1912732E3,1.5952226E2,2.385423E3,1.1587351E3,6.727491E2,4.8352814E2,3.0244692E3,2.23603E2,1.9479405E2,9.518959E2,3.420727E2,4.221255E2,7.024967E1,1.82717E3,1.583775E3,2.1079685E1,4.1921616E0,9.924771E0,4.2646526E1,1.2780448E2,1.1301597E1,1.8026654E2,3.9108097E1,2.9960165E2,2.5242764E2,1.9256032E2,7.9579236E2,2.8324484E2,8.199803E1,3.5206554E0,7.505943E0,3.2063904E2,4.1140755E1,6.330315E0,1.6454546E0,3.0380883E0,2.2269704E2,2.8578854E2,4.587943E2,1.1407713E0,1.0810765E0,1.870155E1,2.5122507E2,5.6117767E1,1.3623059E2,1.6570513E1,4.050448E1,1.1102267E1,2.2196462E0,5.0432086E2,6.792501E0,1.1817796E1,3.6788433E0,1.2384721E0,1.4019512E1,3.5680679E3,2.3569122E1,2.313177E1,2.0404578E2,3.1496883E1,3.554681E1,8.172388E1,7.309499E1],"tree_param":{"num_deleted":"0","num_feature":"33","num_nodes":"127","size_leaf_vector":"1"}},{"base_weights":[-2.101582E-3,6.0313926E-3,-8.7976135E-2,-3.2090954E-3,5.983417E-1,-5.333155E-1,-5.196794E-2,1.6101694E-2,-4.521142E-2,-1.3876022E-2,9.386185E-1,-8.6055404E-1,7.857662E-2,-5.307871E-1,-1.6167162E-2,1.0670087E-2,6.680746E-1,-2.0713481E-1,1.1711134E-2,1.9186474E0,-6.592034E-1,2.2876675E0,4.3488482E-1,-8.71399E-1,3.0331755E-1,-4.7825847E-2,7.5350994E-1,-5.8394516E-1,5.5583857E-2,8.617057E-2,-1.2662603E-1,2.7431324E-2,-2.392189E-1,1.3976891E0,-3.2068408E-1,-3.8132183E-2,-3.1129554E-1,1.6899659E-1,-3.203959E-2,2.122711E0,-6.4610064E-1,-1.0575806E0,-2.8614506E-1,2.450642E0,1.2497398E-1,2.2280134E-1,1.2276059E0,-1.0913051E0,-7.87743E-1,-2.4526994E-1,4.5518598E-1,5.498019E-1,6.73239E-2,-5.2205205E-1,-9.3515265E-1,7.788883E-1,-4.595282E-1,-5.2789632E-2,4.7001508E-1,-4.494526E-1,-4.307314E-2,7.7256287E-4,1.1024767E-1,-1.22888096E-1,6.2482066E-2,6.6192174E-1,-1.9409214E-1,-2.2791336E-1,4.956179E-1,2.8400084E-2,-1.4748894E-1,-1.578484E-1,-4.039748E-2,3.1633656E-2,2.8173286E-1,-4.851299E-3,-4.0375566E-1,7.225125E-1,1.8895237E-1,-4.198672E-1,-4.744482E-2,-3.2903686E-1,2.6514706E-1,2.9494324E-1,-2.740475E-1,8.4980255E-1,7.0873064E-1,-1.212536E-1,2.1151334E-1,1.6224399E-1,-2.3506396E-1,3.7389812E-1,-6.701218E-2,-3.403612E-1,-3.2098923E-2,-2.418541E-1,1.167249E-1,-3.4962323E-1,-5.9643608E-2,1.8200839E-1,-4.5208612E-1,-3.1448543E-1,3.3087957E-1,-1.9087088E-1,-4.587537E-2,-1.204012E-1,-3.0924237E-1,6.351871E-2,3.5557452E-1,-3.6346316E-1,2.500055E-2,-1.5998534E-3,-3.0257583E-1,-1.703772E-1,1.6687761E-1,-1.8411914E-1,2.1310487E-1,1.5313165E-1,-3.717762E-2],"categories":[],"categories_nodes":[],"categories_segments":[],"categories_sizes":[],"default_left":[0,0,0,0,0,0,0,0,0,0,0,0,0,0,0,0,0,0,0,0,0,0,0,0,0,0,0,0,0,0,0,0,0,0,0,0,0,0,0,0,0,0,0,0,0,0,0,0,0,0,0,0,0,0,0,0,0,0,0,0,0,0,0,0,0,0,0,0,0,0,0,0,0,0,0,0,0,0,0,0,0,0,0,0,0,0,0,0,0,0,0,0,0,0,0,0,0,0,0,0,0,0,0,0,0,0,0,0,0,0,0,0,0,0,0,0,0,0,0],"id":11,"left_children":[1,3,5,7,9,11,13,15,17,19,21,23,25,27,29,31,33,35,37,39,41,43,45,47,-1,49,51,53,55,57,59,61,63,65,67,69,71,73,75,77,79,81,83,85,87,89,91,93,95,97,99,-1,101,103,105,107,109,111,113,115,117,-1,-1,-1,-1,-1,-1,-1,-1,-1,-1,-1,-1,-1,-1,-1,-1,-1,-1,-1,-1,-1,-1,-1,-1,-1,-1,-1,-1,-1,-1,-1,-1,-1,-1,-1,-1,-1,-1,-1,-1,-1,-1,-1,-1,-1,-1,-1,-1,-1,-1,-1,-1,-1,-1,-1,-1,-1,-1],"loss_changes":[6.64892E1,4.759773E2,1.3204597E2,6.945447E1,2.783063E2,1.234149E2,1.3063358E2,2.0772592E2,2.48583E2,5.976612E2,5.825096E2,9.02948E0,1.8426607E1,1.6557419E1,8.0179405E1,2.436784E2,3.5008133E2,1.2347473E2,1.3732695E2,6.416135E1,5.30885E1,8.189319E1,1.0504452E2,6.4928894E0,0E0,1.823718E1,2.5100405E1,1.007988E1,1.7116537E1,1.9641476E2,9.198761E1,4.6084354E2,2.789569E2,4.6286218E2,1.8018379E2,1.6120723E2,1.6464258E2,2.124549E2,3.254958E2,4.5974976E1,3.3112884E0,1.4165527E1,1.4971706E2,6.143799E-1,5.6247683E0,1.5897807E2,3.8640137E0,4.4551544E0,6.6737823E0,5.3985567E0,1.6311577E1,0E0,2.641278E1,1.7419693E1,3.241188E0,4.1464453E0,1.1082472E1,1.2265306E2,8.792879E1,1.3403922E2,1.21380875E2,0E0,0E0,0E0,0E0,0E0,0E0,0E0,0E0,0E0,0E0,0E0,0E0,0E0,0E0,0E0,0E0,0E0,0E0,0E0,0E0,0E0,0E0,0E0,0E0,0E0,0E0,0E0,0E0,0E0,0E0,0E0,0E0,0E0,0E0,0E0,0E0,0E0,0E0,0E0,0E0,0E0,0E0,0E0,0E0,0E0,0E0,0E0,0E0,0E0,0E0,0E0,0E0,0E0,0E0,0E0,0E0,0E0,0E0],"parents":[2147483647,0,0,1,1,2,2,3,3,4,4,5,5,6,6,7,7,8,8,9,9,10,10,11,11,12,12,13,13,14,14,15,15,16,16,17,17,18,18,19,19,20,20,21,21,22,22,23,23,25,25,26,26,27,27,28,28,29,29,30,30,31,31,32,32,33,33,34,34,35,35,36,36,37,37,38,38,39,39,40,40,41,41,42,42,43,43,44,44,45,45,46,46,47,47,48,48,49,49,50,50,52,52,53,53,54,54,55,55,56,56,57,57,58,58,59,59,60,60],"right_children":[2,4,6,8,10,12,14,16,18,20,22,24,26,28,30,32,34,36,38,40,42,44,46,48,-1,50,52,54,56,58,60,62,64,66,68,70,72,74,76,78,80,82,84,86,88,90,92,94,96,98,100,-1,102,104,106,108,110,112,114,116,118,-1,-1,-1,-1,-1,-1,-1,-1,-1,-1,-1,-1,-1,-1,-1,-1,-1,-1,-1,-1,-1,-1,-1,-1,-1,-1,-1,-1,-1,-1,-1,-1,-1,-1,-1,-1,-1,-1,-1,-1,-1,-1,-1,-1,-1,-1,-1,-1,-1,-1,-1,-1,-1,-1,-1,-1,-1,-1],"split_conditions":[8E2,7.8E2,8.01E2,3.4E1,3.5E1,3.7E1,1.2E1,7.6E2,3.9E1,1.5E1,3.7E1,2.3587813E0,4.1E1,2.7890384E-1,2.7E1,6.4E2,7.7E2,2.6E2,4.1E1,2.7890384E-1,2.6E1,4.4448152E-1,4.6E1,-4.786967E-1,3.0331755E-1,1.3993027E0,4.5E1,9.6E2,8.8E2,2.6E1,3.7E1,5.9E2,2.9E1,1.7E1,2.9E1,3.8E1,5E2,7.5E2,7.7E2,6.3932896E-1,2E0,4.725017E0,2.9E1,3E0,-3.0907443E-1,4.5E1,2.3558586E0,1.4391277E0,3.592213E0,1E0,4.4448152E-1,5.498019E-1,4.6E1,9.2E2,-8.665211E-1,8.4E2,9.2E2,2.4E1,9.1E2,9.4E2,8.3E2,7.7256287E-4,1.1024767E-1,-1.22888096E-1,6.2482066E-2,6.6192174E-1,-1.9409214E-1,-2.2791336E-1,4.956179E-1,2.8400084E-2,-1.4748894E-1,-1.578484E-1,-4.039748E-2,3.1633656E-2,2.8173286E-1,-4.851299E-3,-4.0375566E-1,7.225125E-1,1.8895237E-1,-4.198672E-1,-4.744482E-2,-3.2903686E-1,2.6514706E-1,2.9494324E-1,-2.740475E-1,8.4980255E-1,7.0873064E-1,-1.212536E-1,2.1151334E-1,1.6224399E-1,-2.3506396E-1,3.7389812E-1,-6.701218E-2,-3.403612E-1,-3.2098923E-2,-2.418541E-1,1.167249E-1,-3.4962323E-1,-5.9643608E-2,1.8200839E-1,-4.5208612E-1,-3.1448543E-1,3.3087957E-1,-1.9087088E-1,-4.587537E-2,-1.204012E-1,-3.0924237E-1,6.351871E-2,3.5557452E-1,-3.6346316E-1,2.500055E-2,-1.5998534E-3,-3.0257583E-1,-1.703772E-1,1.6687761E-1,-1.8411914E-1,2.1310487E-1,1.5313165E-1,-3.717762E-2],"split_indices":[6,6,6,5,5,5,5,6,5,5,5,29,5,26,5,6,6,6,5,26,5,1,5,22,0,30,5,6,6,5,5,6,5,5,5,5,6,6,6,22,28,22,5,28,23,5,0,25,26,28,1,0,5,6,25,6,6,5,6,6,6,0,0,0,0,0,0,0,0,0,0,0,0,0,0,0,0,0,0,0,0,0,0,0,0,0,0,0,0,0,0,0,0,0,0,0,0,0,0,0,0,0,0,0,0,0,0,0,0,0,0,0,0,0,0,0,0,0,0],"split_type":[0,0,0,0,0,0,0,0,0,0,0,0,0,0,0,0,0,0,0,0,0,0,0,0,0,0,0,0,0,0,0,0,0,0,0,0,0,0,0,0,0,0,0,0,0,0,0,0,0,0,0,0,0,0,0,0,0,0,0,0,0,0,0,0,0,0,0,0,0,0,0,0,0,0,0,0,0,0,0,0,0,0,0,0,0,0,0,0,0,0,0,0,0,0,0,0,0,0,0,0,0,0,0,0,0,0,0,0,0,0,0,0,0,0,0,0,0,0,0],"sum_hessian":[9.519829E4,8.696315E4,8.235143E3,8.562827E4,1.3348711E3,6.150137E2,7.620129E3,5.8659758E4,2.6968516E4,4.7722272E2,8.576484E2,4.004484E2,2.1456528E2,5.291508E2,7.090978E3,5.817611E4,4.8365067E2,7.0139136E3,1.9954602E4,1.1897181E2,3.5825092E2,2.3221419E2,6.254342E2,3.986727E2,1.7756771E0,1.815024E2,3.3062885E1,4.8517126E2,4.3979572E1,3.6809128E3,3.4100654E3,5.452008E4,3.6560295E3,2.7805652E2,2.0559416E2,2.6750173E3,4.3388965E3,4.3420195E3,1.5612582E4,1.10363144E2,8.6086645E0,1.7235916E2,1.8589177E2,2.1581763E2,1.6396572E1,4.9443488E2,1.3099933E2,1.0654728E2,2.9212543E2,1.3070857E2,5.079382E1,1.2202008E1,2.0860876E1,4.14594E2,7.057727E1,1.8080051E1,2.5899523E1,2.7031685E3,9.7774426E2,7.002197E2,2.7098457E3,5.0807414E4,3.712665E3,2.6478105E3,1.00821906E3,1.9919191E2,7.886461E1,1.6867175E2,3.6922405E1,2.0697246E3,6.052927E2,1.9567188E3,2.3821777E3,4.012073E3,3.2994644E2,1.542726E4,1.8532243E2,9.2122116E1,1.8241026E1,2.6494136E0,5.959251E0,1.6937352E2,2.9856417E0,6.1299465E1,1.2459229E2,3.464644E1,1.8117119E2,8.733192E0,7.6633797E0,3.760602E2,1.18374664E2,1.2946991E2,1.5294291E0,1.0191827E2,4.629012E0,2.8792938E2,4.19603E0,5.124666E0,1.2558391E2,4.7794147E1,2.999673E0,1.0036652E1,1.08242235E1,3.1609332E2,9.850069E1,1.1514558E1,5.9062714E1,8.181758E0,9.898293E0,1.0341679E1,1.5557844E1,2.5762588E3,1.2690971E2,7.4580864E1,9.031634E2,6.137563E2,8.646343E1,3.4470346E2,2.3651423E3],"tree_param":{"num_deleted":"0","num_feature":"33","num_nodes":"119","size_leaf_vector":"1"}},{"base_weights":[-2.3284666E-3,-1.2469446E-1,3.5078519E-3,-1.6682598E-1,1.0629442E-1,1.2578706E-1,-1.2997538E-2,-9.478782E-2,-4.557028E-1,6.823606E-1,-1.6275707E-1,2.019873E-1,-1.2149832E-1,-6.527154E-2,1.1244181E-2,-7.344267E-2,-8.9849645E-1,-5.977886E-1,-8.814873E-2,9.3078285E-1,3.3141395E-1,-1.5693495E0,1.3585413E-1,1.3654593E-1,7.437852E-1,-4.5240562E-2,-1.3832065E0,-2.5953457E-2,-2.1026213E-1,2.9322103E-1,-2.260609E-3,-9.359993E-2,2.4484665E0,-4.2685214E-1,-4.5070225E-1,-9.2458475E-1,-4.5130113E-1,-5.331442E-1,1.6314667E-1,1.0636452E0,6.6734695E-1,1.5099436E-1,7.6219517E-1,-5.43665E-1,6.235975E-1,9.012612E-1,-3.427017E-1,2.0819223E-1,-1.2003484E0,7.555068E-1,-4.0850532E-1,-4.5613447E-1,1.4240472E-1,-1.5523047E0,6.599014E-1,-5.9334744E-2,1.2450531E-1,-8.867343E-2,-3.6729378E-1,-1.391393E-1,5.682803E-1,6.226826E-2,-2.2115566E-2,-1.6453514E-2,-1.4186382E-1,1.8448631E-1,7.544678E-1,-1.9685166E-1,2.6576185E-1,5.0246898E-2,-2.9407945E-1,-2.1764855E-1,-8.826986E-2,-7.84292E-2,-3.0927244E-1,2.385165E-1,-2.3067007E-2,2.1524806E-1,3.6541447E-1,7.8762144E-2,3.0329388E-1,-3.491807E-2,1.8573855E-1,2.6917574E-1,-5.2809093E-2,-1.6937551E-1,4.8893785E-1,3.2436308E-1,-1.0194897E-1,-1.3033104E-1,1.7200714E-1,4.2020075E-2,3.746234E-1,-3.9301348E-1,-8.111262E-2,2.426676E-1,7.702627E-2,-8.92682E-2,-2.1235026E-1,2.1099988E-1,-4.5012385E-2,2.3191734E-3,-4.7965097E-1,3.8382807E-1,-5.2923705E-2,-5.3239956E-2,4.0751356E-3,1.18336104E-1,-5.140469E-2,-4.572084E-2,3.9395615E-1,-1.4021344E-1,-2.059286E-3,3.7966456E-2,-2.5349382E-1,1.22964434E-1,2.6360956E-1,-1.8120477E-2,8.169753E-2,-9.1621794E-2,1.5762983E-3],"categories":[],"categories_nodes":[],"categories_segments":[],"categories_sizes":[],"default_left":[0,0,0,0,0,0,0,0,0,0,0,0,0,0,0,0,0,0,0,0,0,0,0,0,0,0,0,0,0,0,0,0,0,0,0,0,0,0,0,0,0,0,0,0,0,0,0,0,0,0,0,0,0,0,0,0,0,0,0,0,0,0,0,0,0,0,0,0,0,0,0,0,0,0,0,0,0,0,0,0,0,0,0,0,0,0,0,0,0,0,0,0,0,0,0,0,0,0,0,0,0,0,0,0,0,0,0,0,0,0,0,0,0,0,0,0,0,0,0,0,0],"id":12,"left_children":[1,3,5,7,9,11,13,15,17,19,21,23,25,27,29,31,33,35,37,39,41,43,45,47,49,51,53,55,57,59,61,63,65,-1,67,69,71,73,75,77,79,81,83,-1,85,87,89,91,93,95,-1,97,99,101,103,105,107,109,111,113,115,117,119,-1,-1,-1,-1,-1,-1,-1,-1,-1,-1,-1,-1,-1,-1,-1,-1,-1,-1,-1,-1,-1,-1,-1,-1,-1,-1,-1,-1,-1,-1,-1,-1,-1,-1,-1,-1,-1,-1,-1,-1,-1,-1,-1,-1,-1,-1,-1,-1,-1,-1,-1,-1,-1,-1,-1,-1,-1,-1],"loss_changes":[6.767445E1,4.2000046E1,1.8254677E2,7.588913E1,1.0334615E2,2.0271568E2,1.0098583E2,5.0057915E1,3.7968353E1,1.8195435E1,1.9125166E2,2.9146198E2,2.4379227E2,1.4392593E2,2.0732545E2,1.4496977E2,1.7086205E1,2.470996E1,2.2915733E1,3.6204987E0,6.842661E0,4.3592728E1,1.3807027E2,7.0313477E2,2.2894318E1,1.84421E2,5.091922E1,9.9768875E1,1.0280199E2,2.9600348E2,6.656918E1,4.1508266E1,1.2077026E0,0E0,1.2166844E1,9.984863E0,1.5479454E1,9.727022E0,1.9966944E1,3.4316483E0,5.8777695E0,8.126087E0,3.4751625E0,0E0,1.1313494E1,3.274221E1,1.9756693E1,4.9361993E2,3.773944E1,2.3269043E1,0E0,2.9718033E1,2.6949567E2,9.716248E0,6.3088927E0,1.4003929E2,2.881407E2,2.7151022E2,8.4771545E1,1.8170305E2,7.442798E1,3.1503418E2,3.0807135E2,0E0,0E0,0E0,0E0,0E0,0E0,0E0,0E0,0E0,0E0,0E0,0E0,0E0,0E0,0E0,0E0,0E0,0E0,0E0,0E0,0E0,0E0,0E0,0E0,0E0,0E0,0E0,0E0,0E0,0E0,0E0,0E0,0E0,0E0,0E0,0E0,0E0,0E0,0E0,0E0,0E0,0E0,0E0,0E0,0E0,0E0,0E0,0E0,0E0,0E0,0E0,0E0,0E0,0E0,0E0,0E0,0E0,0E0],"parents":[2147483647,0,0,1,1,2,2,3,3,4,4,5,5,6,6,7,7,8,8,9,9,10,10,11,11,12,12,13,13,14,14,15,15,16,16,17,17,18,18,19,19,20,20,21,21,22,22,23,23,24,24,25,25,26,26,27,27,28,28,29,29,30,30,31,31,32,32,34,34,35,35,36,36,37,37,38,38,39,39,40,40,41,41,42,42,44,44,45,45,46,46,47,47,48,48,49,49,51,51,52,52,53,53,54,54,55,55,56,56,57,57,58,58,59,59,60,60,61,61,62,62],"right_children":[2,4,6,8,10,12,14,16,18,20,22,24,26,28,30,32,34,36,38,40,42,44,46,48,50,52,54,56,58,60,62,64,66,-1,68,70,72,74,76,78,80,82,84,-1,86,88,90,92,94,96,-1,98,100,102,104,106,108,110,112,114,116,118,120,-1,-1,-1,-1,-1,-1,-1,-1,-1,-1,-1,-1,-1,-1,-1,-1,-1,-1,-1,-1,-1,-1,-1,-1,-1,-1,-1,-1,-1,-1,-1,-1,-1,-1,-1,-1,-1,-1,-1,-1,-1,-1,-1,-1,-1,-1,-1,-1,-1,-1,-1,-1,-1,-1,-1,-1,-1,-1],"split_conditions":[5E0,5.9E2,7E0,4E0,6E2,4.8E2,2.2E1,5.7E2,1.3993027E0,1.3993027E0,6.2E2,4.7E2,6E0,1.7E1,2.3E1,5.6E2,5.8E2,3E0,2.2E2,2.863033E-1,1E0,2.8731384E0,2E0,4.5E2,6E0,5.2E2,2.8731384E0,1.5E1,2.4E2,9E1,1.9E2,4.7E2,-2.5827658E-1,-4.2685214E-1,1.8395449E-1,3E1,2.2E2,1.41E2,2.7E2,-2.4519284E-1,8.242881E-1,-1.489564E-1,2.29837E-1,-5.43665E-1,-4.3881238E-1,6.4E2,7.522337E-1,4.4E2,2.7890384E-1,3.9329463E-1,-4.0850532E-1,5E2,5.4E2,4.9E2,-7.6825716E-2,2.5E2,4.8E2,2.2E2,8.6E2,7E1,1.6E2,1.3E2,2.5E2,-1.6453514E-2,-1.4186382E-1,1.8448631E-1,7.544678E-1,-1.9685166E-1,2.6576185E-1,5.0246898E-2,-2.9407945E-1,-2.1764855E-1,-8.826986E-2,-7.84292E-2,-3.0927244E-1,2.385165E-1,-2.3067007E-2,2.1524806E-1,3.6541447E-1,7.8762144E-2,3.0329388E-1,-3.491807E-2,1.8573855E-1,2.6917574E-1,-5.2809093E-2,-1.6937551E-1,4.8893785E-1,3.2436308E-1,-1.0194897E-1,-1.3033104E-1,1.7200714E-1,4.2020075E-2,3.746234E-1,-3.9301348E-1,-8.111262E-2,2.426676E-1,7.702627E-2,-8.92682E-2,-2.1235026E-1,2.1099988E-1,-4.5012385E-2,2.3191734E-3,-4.7965097E-1,3.8382807E-1,-5.2923705E-2,-5.3239956E-2,4.0751356E-3,1.18336104E-1,-5.140469E-2,-4.572084E-2,3.9395615E-1,-1.4021344E-1,-2.059286E-3,3.7966456E-2,-2.5349382E-1,1.22964434E-1,2.6360956E-1,-1.8120477E-2,8.169753E-2,-9.1621794E-2,1.5762983E-3],"split_indices":[5,6,5,5,6,6,5,6,30,30,6,6,5,5,5,6,6,28,6,25,13,1,5,6,5,6,1,5,6,6,6,6,0,0,0,6,6,6,6,0,25,22,23,0,23,6,26,6,26,0,0,6,6,6,22,6,6,6,6,6,6,6,6,0,0,0,0,0,0,0,0,0,0,0,0,0,0,0,0,0,0,0,0,0,0,0,0,0,0,0,0,0,0,0,0,0,0,0,0,0,0,0,0,0,0,0,0,0,0,0,0,0,0,0,0,0,0,0,0,0,0],"split_type":[0,0,0,0,0,0,0,0,0,0,0,0,0,0,0,0,0,0,0,0,0,0,0,0,0,0,0,0,0,0,0,0,0,0,0,0,0,0,0,0,0,0,0,0,0,0,0,0,0,0,0,0,0,0,0,0,0,0,0,0,0,0,0,0,0,0,0,0,0,0,0,0,0,0,0,0,0,0,0,0,0,0,0,0,0,0,0,0,0,0,0,0,0,0,0,0,0,0,0,0,0,0,0,0,0,0,0,0,0,0,0,0,0,0,0,0,0,0,0,0,0],"sum_hessian":[9.475839E4,4.312881E3,9.044551E4,3.6478113E3,6.650695E2,1.0755725E4,7.968978E4,2.9207761E3,7.270352E2,2.1124236E2,4.5382718E2,8.222248E3,2.5334773E3,2.524679E4,5.4442992E4,2.8462751E3,7.4500916E1,5.238887E2,2.0314653E2,1.22720665E2,8.852169E1,7.872792E1,3.7509924E2,7.337264E3,8.849837E2,2.3900579E3,1.4341943E2,1.9861885E4,5.3849033E3,2.487334E3,5.195566E4,2.824661E3,2.1614227E1,3.3314228E1,4.1186687E1,1.6050632E2,3.633824E2,7.291197E1,1.3023456E2,7.9558304E1,4.3162365E1,6.3342937E1,2.5178751E1,7.103452E1,7.693399E0,1.4396187E2,2.3113739E2,6.9648506E3,3.7241324E2,8.8072174E2,4.2619834E0,7.4884753E2,1.6412103E3,1.326785E2,1.0740936E1,1.6255902E4,3.6059832E3,3.0358367E3,2.3490664E3,9.6731866E2,1.5200153E3,1.222432E4,3.973134E4,2.5638325E3,2.6082852E2,1.1143138E0,2.0499912E1,3.614E1,5.046689E0,7.689097E0,1.5281721E2,1.3102795E2,2.3235443E2,4.8152344E1,2.4759628E1,3.5215588E1,9.501897E1,2.6282701E1,5.32756E1,2.062715E1,2.2535213E1,4.0793785E1,2.254915E1,2.204854E1,3.1302106E0,3.7289257E0,3.9644732E0,1.25844215E2,1.8117655E1,2.1057585E2,2.0561531E1,6.537944E3,4.269068E2,3.3275397E2,3.965927E1,7.9500464E2,8.5717064E1,4.607511E2,2.8809644E2,5.6195105E2,